{"learner":{"attributes":{"best_iteration":"42","best_score":"0.9999972601238424","scikit_learn":"{\"_estimator_type\": \"classifier\"}"},"feature_names":[],"feature_types":[],"gradient_booster":{"model":{"cats":{"enc":[],"feature_segments":[],"sorted_idx":[]},"gbtree_model_param":{"num_parallel_tree":"1","num_trees":"63"},"iteration_indptr":[0,1,2,3,4,5,6,7,8,9,10,11,12,13,14,15,16,17,18,19,20,21,22,23,24,25,26,27,28,29,30,31,32,33,34,35,36,37,38,39,40,41,42,43,44,45,46,47,48,49,50,51,52,53,54,55,56,57,58,59,60,61,62,63],"tree_info":[0,0,0,0,0,0,0,0,0,0,0,0,0,0,0,0,0,0,0,0,0,0,0,0,0,0,0,0,0,0,0,0,0,0,0,0,0,0,0,0,0,0,0,0,0,0,0,0,0,0,0,0,0,0,0,0,0,0,0,0,0,0,0],"trees":[{"base_weights":[4.7879023E-3,1.7174922E0,-1.8957038E0,1.9465473E0,-1.6402372E0,-1.9695733E0,1.7732836E0,1.97346E0,-9.02439E-2,-1.867125E0,1.4296463E0,-1.9855373E0,8.6343795E-1,-2.7954986E-2,9.601914E-2,1.9896237E0,-9.186881E-1,-1.928692E0,4.2928845E-2,8.640297E-3,8.2829796E-2,-1.991974E0,5.4784507E-2,-6.363636E-2,8.378892E-2,1.9933215E0,-3.489688E-2,-8.461539E-2,6.327408E-2,-1.9601825E0,8.640297E-3,-9.992171E-2,5.4784507E-2,9.981426E-2,-1.1559458E-2,-9.880597E-2,-1.9355986E-2],"categories":[],"categories_nodes":[],"categories_segments":[],"categories_sizes":[],"default_left":[0,0,0,0,0,0,0,0,0,0,0,0,0,0,0,0,0,0,0,0,0,0,0,0,0,0,0,0,0,0,0,0,0,0,0,0,0],"id":0,"left_children":[1,3,5,7,9,11,13,15,-1,17,19,21,23,-1,-1,25,27,29,-1,-1,-1,31,-1,-1,-1,33,-1,-1,-1,35,-1,-1,-1,-1,-1,-1,-1],"loss_changes":[9.024874E3,1.1248296E3,3.5969385E2,1.4144336E2,6.791591E1,6.0001465E1,1.0153534E1,6.523877E1,0E0,1.636676E1,1.7141695E0,2.7606445E1,1.587393E1,0E0,0E0,1.4800293E1,1.6035908E1,6.0322266E0,0E0,0E0,0E0,2.771289E1,0E0,0E0,0E0,9.345215E0,0E0,0E0,0E0,1.36203E0,0E0,0E0,0E0,0E0,0E0,0E0,0E0],"parents":[2147483647,0,0,1,1,2,2,3,3,4,4,5,5,6,6,7,7,9,9,10,10,11,11,12,12,15,15,16,16,17,17,21,21,25,25,29,29],"right_children":[2,4,6,8,10,12,14,16,-1,18,20,22,24,-1,-1,26,28,30,-1,-1,-1,32,-1,-1,-1,34,-1,-1,-1,36,-1,-1,-1,-1,-1,-1,-1],"split_conditions":[8.493603E-1,1.9898078E0,2.036035E0,1.7915511E0,1.2255856E0,1.3931584E0,3.5724586E-1,1.6464411E0,-9.02439E-2,2.2279782E0,2.961686E-1,1.5663272E0,3.514478E-1,-2.7954986E-2,9.601914E-2,4.0194016E0,2.8381836E-1,6.664584E-1,4.2928845E-2,8.640297E-3,8.2829796E-2,2.4557619E-1,5.4784507E-2,-6.363636E-2,8.378892E-2,8.0166805E-1,-3.489688E-2,-8.461539E-2,6.327408E-2,1.4637783E0,8.640297E-3,-9.992171E-2,5.4784507E-2,9.981426E-2,-1.1559458E-2,-9.880597E-2,-1.9355986E-2],"split_indices":[673,238,1268,1040,657,94,1683,209,0,1323,46,657,403,0,0,1546,198,80,0,0,0,1932,0,0,0,532,0,0,0,46,0,0,0,0,0,0,0],"split_type":[0,0,0,0,0,0,0,0,0,0,0,0,0,0,0,0,0,0,0,0,0,0,0,0,0,0,0,0,0,0,0,0,0,0,0,0,0],"sum_hessian":[2.7706353E3,1.4573668E3,1.3132683E3,1.3646917E3,9.267522E1,1.2878035E3,2.5464788E1,1.3554417E3,9.25E0,8.666202E1,6.0131917E0,1.2808849E3,6.9186172E0,1.3445745E0,2.4120214E1,1.3482188E3,7.2228723E0,8.503372E1,1.6282979E0,1.1891489E0,4.824043E0,1.2785675E3,2.317447E0,1.75E0,5.1686172E0,1.3466241E3,1.5945745E0,5.5E0,1.7228724E0,8.3844574E1,1.1891489E0,1.27625E3,2.317447E0,1.344935E3,1.6891489E0,8.275E1,1.0945745E0],"tree_param":{"num_deleted":"0","num_feature":"1971","num_nodes":"37","size_leaf_vector":"1"}},{"base_weights":[-2.5794907E-3,1.6388686E0,-1.8080094E0,1.8465581E0,-1.6905944E0,-1.880701E0,1.1771337E0,1.88156E0,-1.4322532E0,-1.8699265E0,7.4839413E-1,-1.8888355E0,7.122689E-2,1.7346832E0,-1.2127078E0,1.8913304E0,-1.2504524E0,-8.8361785E-2,5.527882E-2,-9.4295256E-2,-1.8412827E-2,7.6842934E-2,-5.8446076E-2,-1.8969252E0,7.000237E-2,9.182787E-2,3.839688E-1,-7.804823E-2,1.0796892E-2,1.8990142E0,-3.5819602E-1,-1.8412827E-2,-7.047002E-2,-1.9019922E0,1.0035579E-1,-1.8381085E-2,4.8447363E-2,9.5091134E-2,-2.665851E-2,-6.9861695E-2,6.0213607E-2,-9.520123E-2,8.160708E-3,-5.76245E-2,6.0692113E-2],"categories":[],"categories_nodes":[],"categories_segments":[],"categories_sizes":[],"default_left":[0,0,0,0,0,0,0,0,0,0,0,0,0,0,0,0,0,0,0,0,0,0,0,0,0,0,0,0,0,0,0,0,0,0,0,0,0,0,0,0,0,0,0,0,0],"id":1,"left_children":[1,3,5,7,9,11,13,15,17,19,21,23,-1,25,27,29,31,-1,-1,-1,-1,-1,-1,33,-1,-1,35,-1,-1,37,39,-1,-1,41,43,-1,-1,-1,-1,-1,-1,-1,-1,-1,-1],"loss_changes":[8.263623E3,1.01308716E3,2.9035938E2,1.6052734E2,3.9137726E1,3.7555664E1,4.4984806E1,4.4018066E1,1.4785667E1,1.2407837E0,1.18096695E1,3.708252E1,0E0,2.9420776E0,3.6587877E0,2.4142578E1,1.5895987E-1,0E0,0E0,0E0,0E0,0E0,0E0,1.3258301E1,0E0,0E0,1.7293904E0,0E0,0E0,1.0254395E1,1.05499525E1,0E0,0E0,5.716797E0,7.2821407E0,0E0,0E0,0E0,0E0,0E0,0E0,0E0,0E0,0E0,0E0],"parents":[2147483647,0,0,1,1,2,2,3,3,4,4,5,5,6,6,7,7,8,8,9,9,10,10,11,11,13,13,14,14,15,15,16,16,23,23,26,26,29,29,30,30,33,33,34,34],"right_children":[2,4,6,8,10,12,14,16,18,20,22,24,-1,26,28,30,32,-1,-1,-1,-1,-1,-1,34,-1,-1,36,-1,-1,38,40,-1,-1,42,44,-1,-1,-1,-1,-1,-1,-1,-1,-1,-1],"split_conditions":[9.0621066E-1,2.77212E0,1.0380117E0,1.1502222E0,8.580305E-1,2.4557619E-1,1.834574E0,1.2961884E0,3.204987E-1,2.08718E0,1.2529416E0,1.9326904E0,7.122689E-2,3.822354E0,2.5630745E-1,3.5701644E0,1.962594E0,-8.8361785E-2,5.527882E-2,-9.4295256E-2,-1.8412827E-2,7.6842934E-2,-5.8446076E-2,1.5677878E0,7.000237E-2,9.182787E-2,2.961686E-1,-7.804823E-2,1.0796892E-2,1.4227744E0,1.5316653E-1,-1.8412827E-2,-7.047002E-2,1.6163536E0,2.4557619E-1,-1.8381085E-2,4.8447363E-2,9.5091134E-2,-2.665851E-2,-6.9861695E-2,6.0213607E-2,-9.520123E-2,8.160708E-3,-5.76245E-2,6.0692113E-2],"split_indices":[492,1651,1119,210,1119,1932,1537,1793,287,677,104,189,0,541,35,1835,283,0,0,0,0,0,0,94,0,0,46,0,0,1567,81,0,0,765,60,0,0,0,0,0,0,0,0,0,0],"split_type":[0,0,0,0,0,0,0,0,0,0,0,0,0,0,0,0,0,0,0,0,0,0,0,0,0,0,0,0,0,0,0,0,0,0,0,0,0,0,0,0,0,0,0,0,0],"sum_hessian":[2.7864492E3,1.4595543E3,1.326895E3,1.3742734E3,8.52808E1,1.295713E3,3.1182066E1,1.3601794E3,1.4094017E1,7.965715E1,5.6236477E0,1.2929594E3,2.7535837E0,2.5505728E1,5.6763372E0,1.3563445E3,3.835011E0,1.271883E1,1.3751872E0,7.856531E1,1.0918487E0,4.1255255E0,1.4981222E0,1.2902091E3,2.7503269E0,2.3382471E1,2.123257E0,4.4893603E0,1.186977E0,1.3518824E3,4.4619665E0,1.0918487E0,2.7431624E0,1.2869918E3,3.2172656E0,1.0919125E0,1.0313444E0,1.3505411E3,1.3413681E0,2.7433784E0,1.7185884E0,1.2858044E3,1.187362E0,1.4974136E0,1.7198521E0],"tree_param":{"num_deleted":"0","num_feature":"1971","num_nodes":"45","size_leaf_vector":"1"}},{"base_weights":[2.0533663E-3,1.5805997E0,-1.7070606E0,1.7799095E0,-1.5300952E0,-1.800312E0,1.4580904E0,1.8033941E0,-8.210924E-2,-1.7418061E0,1.0724026E0,-1.8081043E0,6.7471735E-2,-6.863839E-2,1.7352009E0,1.8122402E0,-9.538908E-1,-1.7885169E0,-2.1193996E-1,7.665679E-2,-2.6421273E-2,-1.8150237E0,5.5425804E-2,8.932508E-2,6.785743E-3,1.816356E0,-2.3921017E-2,-6.8839766E-2,1.0298016E-2,-9.024183E-2,-1.654828E-2,4.837427E-2,-5.4511845E-2,-1.8209407E0,6.4751303E-1,9.095633E-2,-2.6777431E-2,-9.1096155E-2,-1.7395345E-2,-1.7395345E-2,5.869049E-2],"categories":[],"categories_nodes":[],"categories_segments":[],"categories_sizes":[],"default_left":[0,0,0,0,0,0,0,0,0,0,0,0,0,0,0,0,0,0,0,0,0,0,0,0,0,0,0,0,0,0,0,0,0,0,0,0,0,0,0,0,0],"id":2,"left_children":[1,3,5,7,9,11,13,15,-1,17,19,21,-1,-1,23,25,27,29,31,-1,-1,33,-1,-1,-1,35,-1,-1,-1,-1,-1,-1,-1,37,39,-1,-1,-1,-1,-1,-1],"loss_changes":[7.412874E3,8.883042E2,3.9200977E2,1.1087988E2,4.9553055E1,3.390381E1,3.2433098E1,3.4270508E1,0E0,5.367584E0,6.068735E0,2.7828125E1,0E0,0E0,2.6568756E0,1.3410156E1,2.6977348E0,1.2556458E0,4.6980047E0,0E0,0E0,1.9779785E1,0E0,0E0,0E0,9.62793E0,0E0,0E0,0E0,0E0,0E0,0E0,0E0,1.2094727E0,2.3979452E0,0E0,0E0,0E0,0E0,0E0,0E0],"parents":[2147483647,0,0,1,1,2,2,3,3,4,4,5,5,6,6,7,7,9,9,10,10,11,11,14,14,15,15,16,16,17,17,18,18,21,21,25,25,33,33,34,34],"right_children":[2,4,6,8,10,12,14,16,-1,18,20,22,-1,-1,24,26,28,30,32,-1,-1,34,-1,-1,-1,36,-1,-1,-1,-1,-1,-1,-1,38,40,-1,-1,-1,-1,-1,-1],"split_conditions":[4.3247503E-1,1.9898078E0,1.1860974E0,1.772035E0,5.6331575E-1,2.3276892E0,3.5724586E-1,1.620516E0,-8.210924E-2,9.378032E-1,5.950239E-1,4.780309E-1,6.7471735E-2,-6.863839E-2,9.251719E-1,1.6560324E0,2.5630745E-1,6.1525226E-1,1.4408408E0,7.665679E-2,-2.6421273E-2,1.4144673E0,5.5425804E-2,8.932508E-2,6.785743E-3,2.998676E0,-2.3921017E-2,-6.8839766E-2,1.0298016E-2,-9.024183E-2,-1.654828E-2,4.837427E-2,-5.4511845E-2,1.8266575E0,2.4557619E-1,9.095633E-2,-2.6777431E-2,-9.1096155E-2,-1.7395345E-2,-1.7395345E-2,5.869049E-2],"split_indices":[673,238,657,1040,657,1268,1683,1580,0,1696,306,421,0,0,17,587,35,79,1080,0,0,293,0,0,0,538,0,0,0,0,0,0,0,394,60,0,0,0,0,0,0],"split_type":[0,0,0,0,0,0,0,0,0,0,0,0,0,0,0,0,0,0,0,0,0,0,0,0,0,0,0,0,0,0,0,0,0,0,0,0,0,0,0,0,0],"sum_hessian":[2.7456301E3,1.4273748E3,1.3182554E3,1.3418284E3,8.554644E1,1.2809474E3,3.7307953E1,1.3331525E3,8.675906E0,7.941668E1,6.1297607E0,1.278211E3,2.7362807E0,2.9738925E0,3.433406E1,1.3292307E3,3.9217923E0,7.689967E1,2.5170066E0,4.792671E0,1.3370893E0,1.2755626E3,2.6484382E0,3.315379E1,1.1802725E0,1.3270533E3,2.1772935E0,2.7368414E0,1.1849508E0,7.581257E1,1.0871092E0,1.0309899E0,1.4860168E0,1.272765E3,2.7977102E0,1.3257181E3,1.3352387E0,1.2716802E3,1.0848377E0,1.0848377E0,1.7128725E0],"tree_param":{"num_deleted":"0","num_feature":"1971","num_nodes":"41","size_leaf_vector":"1"}},{"base_weights":[2.6165834E-3,1.5129756E0,-1.6629132E0,1.6957026E0,-1.4933141E0,-1.723261E0,1.3484952E0,1.7318313E0,-1.0167588E0,-1.6625026E0,6.397675E-2,-1.7382543E0,8.9532185E-1,1.6013944E0,-5.8251895E-2,1.7408084E0,-9.3409365E-1,-1.5004885E0,6.501684E-2,-8.6897604E-2,4.8175073E-1,-1.7459643E0,6.695641E-2,-5.3257115E-2,7.5577945E-2,-1.6751004E-2,8.530562E-2,1.744773E0,-5.40962E-2,9.752289E-3,-6.59962E-2,7.420839E-3,-8.216277E-2,-1.8999694E-2,5.190098E-2,-1.7498764E0,5.3870734E-2,8.73373E-2,-1.7707786E-2,-8.754234E-2,-1.5891062E-2],"categories":[],"categories_nodes":[],"categories_segments":[],"categories_sizes":[],"default_left":[0,0,0,0,0,0,0,0,0,0,0,0,0,0,0,0,0,0,0,0,0,0,0,0,0,0,0,0,0,0,0,0,0,0,0,0,0,0,0,0,0],"id":3,"left_children":[1,3,5,7,9,11,13,15,17,19,-1,21,23,25,-1,27,29,31,-1,-1,33,35,-1,-1,-1,-1,-1,37,-1,-1,-1,-1,-1,-1,-1,39,-1,-1,-1,-1,-1],"loss_changes":[6.86773E3,7.890359E2,2.3827832E2,1.3407568E2,4.0863342E1,5.154663E1,1.8436787E1,3.3523193E1,2.254953E1,1.3497711E1,0E0,3.2385254E1,1.1165009E1,5.459877E0,0E0,1.6757324E1,2.4896374E0,3.9322205E0,0E0,0E0,2.0448565E0,1.5842529E1,0E0,0E0,0E0,0E0,0E0,6.114258E0,0E0,0E0,0E0,0E0,0E0,0E0,0E0,1.1972656E0,0E0,0E0,0E0,0E0,0E0],"parents":[2147483647,0,0,1,1,2,2,3,3,4,4,5,5,6,6,7,7,8,8,9,9,11,11,12,12,13,13,15,15,16,16,17,17,20,20,21,21,27,27,35,35],"right_children":[2,4,6,8,10,12,14,16,18,20,-1,22,24,26,-1,28,30,32,-1,-1,34,36,-1,-1,-1,-1,-1,38,-1,-1,-1,-1,-1,-1,-1,40,-1,-1,-1,-1,-1],"split_conditions":[9.0621066E-1,2.77212E0,1.3575954E0,1.4536465E0,2.4677439E0,1.3931584E0,2.2127821E0,1.2961884E0,4.6047685E-1,3.6653894E-1,6.397675E-2,8.6617154E-1,2.009985E-1,4.7875398E-1,-5.8251895E-2,1.3061115E0,2.5637352E-1,2.711769E-1,6.501684E-2,-8.6897604E-2,3.540577E0,1.8161994E0,6.695641E-2,-5.3257115E-2,7.5577945E-2,-1.6751004E-2,8.530562E-2,1.7978268E0,-5.40962E-2,9.752289E-3,-6.59962E-2,7.420839E-3,-8.216277E-2,-1.8999694E-2,5.190098E-2,2.2102003E0,5.3870734E-2,8.73373E-2,-1.7707786E-2,-8.754234E-2,-1.5891062E-2],"split_indices":[492,1651,449,979,1323,94,234,1793,449,130,0,1258,121,826,0,1660,234,283,0,0,52,1965,0,0,0,0,0,1615,0,0,0,0,0,0,0,134,0,0,0,0,0],"split_type":[0,0,0,0,0,0,0,0,0,0,0,0,0,0,0,0,0,0,0,0,0,0,0,0,0,0,0,0,0,0,0,0,0,0,0,0,0,0,0,0,0],"sum_hessian":[2.7281128E3,1.4307509E3,1.2973619E3,1.3491815E3,8.156938E1,1.2722932E3,2.5068691E1,1.331804E3,1.73775E1,7.725596E1,4.313421E0,1.2653843E3,6.9090304E0,2.31067E1,1.9619908E0,1.3276803E3,4.1237445E0,1.4667796E1,2.7097037E0,7.481301E1,2.4429445E0,1.2626534E3,2.7307968E0,1.4781283E0,5.430902E0,1.0726326E0,2.203407E1,1.3261995E3,1.480832E0,1.1761624E0,2.9475822E0,1.1656286E0,1.3502168E1,1.0826476E0,1.360297E0,1.261286E3,1.3673917E0,1.3251217E3,1.0777407E0,1.2602095E3,1.0766013E0],"tree_param":{"num_deleted":"0","num_feature":"1971","num_nodes":"41","size_leaf_vector":"1"}},{"base_weights":[1.8468868E-2,-1.3904563E0,1.6394192E0,1.0481949E0,-1.6456223E0,1.6730913E0,-9.079182E-1,1.5321523E0,-1.2581153E0,-1.6636326E0,1.1348566E0,1.6800383E0,-1.0233517E0,-1.4915402E0,6.649189E-2,1.6622337E0,-1.2162997E0,5.907274E-2,-1.571176E0,-1.6705753E0,8.887584E-1,7.353969E-2,-2.3676356E-2,1.6840454E0,-5.052004E-2,-5.8788486E-2,-1.6195774E-2,-1.6061973E-2,-7.814133E-2,8.3858415E-2,7.0689865E-3,-1.639751E-2,-6.742104E-2,-8.119898E-2,-1.3926295E-2,-1.6778522E0,6.844974E-1,6.334482E-3,5.696664E-2,1.6867293E0,-2.3841152E-2,-8.411713E-2,5.4926574E-2,-2.3599237E-2,6.345788E-2,8.439996E-2,9.2242975E-3],"categories":[],"categories_nodes":[],"categories_segments":[],"categories_sizes":[],"default_left":[0,0,0,0,0,0,0,0,0,0,0,0,0,0,0,0,0,0,0,0,0,0,0,0,0,0,0,0,0,0,0,0,0,0,0,0,0,0,0,0,0,0,0,0,0,0,0],"id":4,"left_children":[1,3,5,7,9,11,13,15,17,19,21,23,25,27,-1,29,31,-1,33,35,37,-1,-1,39,-1,-1,-1,-1,-1,-1,-1,-1,-1,-1,-1,41,43,-1,-1,45,-1,-1,-1,-1,-1,-1,-1],"loss_changes":[6.1334204E3,8.95781E2,1.0863696E2,1.5451431E2,6.704248E1,2.4814209E1,2.410815E1,4.2581635E1,2.0384666E1,2.4399414E1,5.5419436E0,1.4963623E1,2.3154974E-2,6.5823555E-1,0E0,2.232788E0,2.2728157E-1,0E0,1.0445709E0,2.3255127E1,6.5013003E-1,0E0,0E0,7.9296875E0,0E0,0E0,0E0,0E0,0E0,0E0,0E0,0E0,0E0,0E0,0E0,1.78833E1,3.765976E0,0E0,0E0,2.0300293E0,0E0,0E0,0E0,0E0,0E0,0E0,0E0],"parents":[2147483647,0,0,1,1,2,2,3,3,4,4,5,5,6,6,7,7,8,8,9,9,10,10,11,11,12,12,13,13,15,15,16,16,18,18,19,19,20,20,23,23,35,35,36,36,39,39],"right_children":[2,4,6,8,10,12,14,16,18,20,22,24,26,28,-1,30,32,-1,34,36,38,-1,-1,40,-1,-1,-1,-1,-1,-1,-1,-1,-1,-1,-1,42,44,-1,-1,46,-1,-1,-1,-1,-1,-1,-1],"split_conditions":[5.1270825E-1,4.869303E-1,3.5267246E0,2.214839E0,1.588104E0,1.2434664E0,3.506758E-1,2.7118433E-1,1.8663228E0,1.4144673E0,2.0528138E0,2.140287E0,1.5737361E0,1.1392728E0,6.649189E-2,2.0946388E0,2.4557619E-1,5.907274E-2,1.418409E0,1.2505254E0,3.1601474E-1,7.353969E-2,-2.3676356E-2,1.9162492E0,-5.052004E-2,-5.8788486E-2,-1.6195774E-2,-1.6061973E-2,-7.814133E-2,8.3858415E-2,7.0689865E-3,-1.639751E-2,-6.742104E-2,-8.119898E-2,-1.3926295E-2,2.6670644E0,2.961686E-1,6.334482E-3,5.696664E-2,4.1527767E0,-2.3841152E-2,-8.411713E-2,5.4926574E-2,-2.3599237E-2,6.345788E-2,8.439996E-2,9.2242975E-3],"split_indices":[1119,238,717,1546,365,1388,1180,738,541,293,238,210,717,210,0,267,17,0,106,80,496,0,0,446,0,0,0,0,0,0,0,0,0,0,0,358,46,0,0,766,0,0,0,0,0,0,0],"split_type":[0,0,0,0,0,0,0,0,0,0,0,0,0,0,0,0,0,0,0,0,0,0,0,0,0,0,0,0,0,0,0,0,0,0,0,0,0,0,0,0,0,0,0,0,0,0,0],"sum_hessian":[2.6836252E3,1.4357863E3,1.2478389E3,1.3570732E2,1.3000789E3,1.2318982E3,1.5940723E1,1.12447044E2,2.3260279E1,1.292111E3,7.9678707E0,1.2291085E3,2.7896812E0,1.2907759E1,3.0329654E0,1.077429E2,4.7041483E0,2.329948E0,2.093033E1,1.2889504E3,3.160521E0,6.6619573E0,1.3059132E0,1.227654E3,1.4544151E0,1.7313648E0,1.0583163E0,1.0572544E0,1.1850504E1,1.06593376E2,1.1495185E0,1.0598929E0,3.6442552E0,1.986264E1,1.0676898E0,1.2852667E3,3.6838088E0,1.1546116E0,2.0059094E0,1.2263503E3,1.3037565E0,1.2835848E3,1.6819018E0,1.3017038E0,2.3821049E0,1.225191E3,1.159338E0],"tree_param":{"num_deleted":"0","num_feature":"1971","num_nodes":"47","size_leaf_vector":"1"}},{"base_weights":[-4.9726567E-3,1.4206768E0,-1.5053862E0,1.5800955E0,-1.3286966E0,-1.5726684E0,1.431755E0,1.6098794E0,-1.0481101E0,-1.5220499E0,6.735741E-2,-1.6144367E0,1.0671111E0,1.5659883E0,-4.66807E-2,1.6233114E0,-9.5499665E-1,-1.4374748E0,4.208917E-1,-1.5835257E0,4.799665E-2,-1.6189324E0,5.432252E-2,7.606714E-2,-1.0223465E0,7.985478E-2,2.4361283E-2,1.6270381E0,-4.893962E-2,-6.942525E-2,4.3476883E-2,-7.577153E-2,-1.5515633E-2,5.091829E-2,-2.274434E-2,-8.0772184E-2,8.515298E-3,-1.6241906E0,7.366295E-1,-5.8180865E-2,-1.5157061E-2,8.1477925E-2,-1.0532168E-2,-8.144038E-2,4.4217404E-2,4.8412975E-2,6.8693496E-3],"categories":[],"categories_nodes":[],"categories_segments":[],"categories_sizes":[],"default_left":[0,0,0,0,0,0,0,0,0,0,0,0,0,0,0,0,0,0,0,0,0,0,0,0,0,0,0,0,0,0,0,0,0,0,0,0,0,0,0,0,0,0,0,0,0,0,0],"id":5,"left_children":[1,3,5,7,9,11,13,15,17,19,-1,21,23,25,-1,27,29,31,33,35,-1,37,-1,-1,39,-1,-1,41,-1,-1,-1,-1,-1,-1,-1,-1,-1,43,45,-1,-1,-1,-1,-1,-1,-1,-1],"loss_changes":[5.675702E3,5.984436E2,2.577273E2,1.0238965E2,4.0911545E1,1.4112402E2,1.0820488E1,4.5387695E1,9.1967125E0,1.2279968E1,0E0,1.6875977E1,2.0817404E1,1.7036438E-1,0E0,1.3871094E1,6.948539E0,5.9297943E-1,2.5147762E0,4.1483917E0,0E0,1.659668E1,0E0,0E0,7.624912E-2,0E0,0E0,6.201416E0,0E0,0E0,0E0,0E0,0E0,0E0,0E0,0E0,0E0,1.58125E1,3.4685004E-1,0E0,0E0,0E0,0E0,0E0,0E0,0E0,0E0],"parents":[2147483647,0,0,1,1,2,2,3,3,4,4,5,5,6,6,7,7,8,8,9,9,11,11,12,12,13,13,15,15,16,16,17,17,18,18,19,19,21,21,24,24,27,27,37,37,38,38],"right_children":[2,4,6,8,10,12,14,16,18,20,-1,22,24,26,-1,28,30,32,34,36,-1,38,-1,-1,40,-1,-1,42,-1,-1,-1,-1,-1,-1,-1,-1,-1,44,46,-1,-1,-1,-1,-1,-1,-1,-1],"split_conditions":[1.5590827E0,9.0920967E-1,1.8340214E0,1.4878559E0,1.639043E0,1.5060704E0,1.7775955E0,2.6476777E0,1.140478E0,1.7807637E-1,6.735741E-2,2.5087552E0,2.7065375E0,8.3396184E-1,-4.66807E-2,8.5266703E-1,8.414739E-1,5.199768E-1,8.006527E-1,1.0118555E0,4.799665E-2,1.9225363E0,5.432252E-2,7.606714E-2,1.1781793E0,7.985478E-2,2.4361283E-2,3.050429E0,-4.893962E-2,-6.942525E-2,4.3476883E-2,-7.577153E-2,-1.5515633E-2,5.091829E-2,-2.274434E-2,-8.0772184E-2,8.515298E-3,3.0719697E-1,8.891983E-1,-5.8180865E-2,-1.5157061E-2,8.1477925E-2,-1.0532168E-2,-8.144038E-2,4.4217404E-2,4.8412975E-2,6.8693496E-3],"split_indices":[238,335,1445,1867,1268,94,225,538,1268,6,0,984,238,174,0,674,502,511,455,79,0,423,0,0,615,0,0,283,0,0,0,0,0,0,0,0,0,1378,32,0,0,0,0,0,0,0,0],"split_type":[0,0,0,0,0,0,0,0,0,0,0,0,0,0,0,0,0,0,0,0,0,0,0,0,0,0,0,0,0,0,0,0,0,0,0,0,0,0,0,0,0,0,0,0,0,0,0],"sum_hessian":[2.6513584E3,1.359579E3,1.2917794E3,1.2854681E3,7.4110886E1,1.2633049E3,2.847443E1,1.271447E3,1.40210285E1,6.951874E1,4.592149E0,1.2440098E3,1.9295126E1,2.7265104E1,1.2093269E0,1.2651885E3,6.2585845E0,1.1100309E1,2.920719E0,6.8191696E1,1.3270366E0,1.2423425E3,1.6672668E0,1.6072899E1,3.2222264E0,2.6033897E1,1.2312057E0,1.2637533E3,1.4352376E0,5.2501364E0,1.0084481E0,1.006008E1,1.0402305E0,1.6394446E0,1.2812744E0,6.7050354E1,1.1413459E0,1.2398853E3,2.457261E0,2.1767375E0,1.045489E0,1.2621355E3,1.6177237E0,1.2379574E3,1.9278488E0,1.3280958E0,1.1291653E0],"tree_param":{"num_deleted":"0","num_feature":"1971","num_nodes":"47","size_leaf_vector":"1"}},{"base_weights":[-2.987687E-3,1.3484904E0,-1.508981E0,1.5033284E0,-1.123004E0,-1.5599536E0,7.63319E-2,1.5398722E0,-1.261762E0,-1.490224E0,1.314578E0,-1.568715E0,9.8126024E-1,1.5573624E0,-1.070205E0,-7.5007156E-2,4.6720546E-2,-1.5624043E0,3.001915E-1,7.182256E-2,5.794239E-3,-1.5769557E0,5.469738E-1,6.350064E-3,6.0408242E-2,1.5694637E0,-1.0616103E0,-7.012298E-2,2.9003749E-2,-7.885918E-2,-1.482479E-2,-2.3600152E-2,4.654684E-2,-1.5815066E0,4.1700065E-2,-4.6165187E-2,6.453994E-2,7.87698E-2,-3.3054914E-2,6.5953783E-3,-6.683799E-2,-7.916582E-2,8.784653E-3],"categories":[],"categories_nodes":[],"categories_segments":[],"categories_sizes":[],"default_left":[0,0,0,0,0,0,0,0,0,0,0,0,0,0,0,0,0,0,0,0,0,0,0,0,0,0,0,0,0,0,0,0,0,0,0,0,0,0,0,0,0,0,0],"id":6,"left_children":[1,3,5,7,9,11,-1,13,15,17,19,21,23,25,27,-1,-1,29,31,-1,-1,33,35,-1,-1,37,39,-1,-1,-1,-1,-1,-1,41,-1,-1,-1,-1,-1,-1,-1,-1,-1],"loss_changes":[5.265603E3,5.2347705E2,1.9171484E2,1.3164087E2,7.442809E1,2.834375E1,0E0,5.9518066E1,1.0454491E1,9.622345E0,1.4596424E0,2.1786377E1,7.675934E-1,4.157495E1,5.7637653E0,0E0,0E0,8.091736E-1,2.184832E0,0E0,0E0,1.4438965E1,7.096199E0,0E0,0E0,1.7633057E1,2.274177E0,0E0,0E0,0E0,0E0,0E0,0E0,4.074463E0,0E0,0E0,0E0,0E0,0E0,0E0,0E0,0E0,0E0],"parents":[2147483647,0,0,1,1,2,2,3,3,4,4,5,5,7,7,8,8,9,9,10,10,11,11,12,12,13,13,14,14,17,17,18,18,21,21,22,22,25,25,26,26,33,33],"right_children":[2,4,6,8,10,12,-1,14,16,18,20,22,24,26,28,-1,-1,30,32,-1,-1,34,36,-1,-1,38,40,-1,-1,-1,-1,-1,-1,42,-1,-1,-1,-1,-1,-1,-1,-1,-1],"split_conditions":[8.493603E-1,1.3197153E0,2.3633502E0,2.741729E0,5.057837E-1,1.678017E0,7.63319E-2,1.4798143E0,1.8602277E0,9.412693E-1,8.441106E-1,2.4656819E-1,3.3098686E-1,1.3899807E0,3.6761543E-1,-7.5007156E-2,4.6720546E-2,1.2731303E0,8.170903E-1,7.182256E-2,5.794239E-3,2.4557619E-1,2.842895E-1,6.350064E-3,6.0408242E-2,1.3257756E0,2.7866736E-1,-7.012298E-2,2.9003749E-2,-7.885918E-2,-1.482479E-2,-2.3600152E-2,4.654684E-2,1.5928986E0,4.1700065E-2,-4.6165187E-2,6.453994E-2,7.87698E-2,-3.3054914E-2,6.5953783E-3,-6.683799E-2,-7.916582E-2,8.784653E-3],"split_indices":[673,1362,1268,503,293,423,0,335,1268,1816,311,1447,259,783,1268,0,0,389,247,0,0,1932,61,0,0,1280,1040,0,0,0,0,0,0,1009,0,0,0,0,0,0,0,0,0],"split_type":[0,0,0,0,0,0,0,0,0,0,0,0,0,0,0,0,0,0,0,0,0,0,0,0,0,0,0,0,0,0,0,0,0,0,0,0,0,0,0,0,0,0,0],"sum_hessian":[2.5851172E3,1.3625076E3,1.2226095E3,1.2825482E3,7.995937E1,1.2028972E3,1.971237E1,1.2662563E3,1.6291859E1,6.9828415E1,1.0130955E1,1.1991455E3,3.7516227E0,1.2582283E3,8.028115E0,1.4982527E1,1.3093324E0,6.7244804E1,2.5836112E0,9.015941E0,1.1150136E0,1.1947466E3,4.398905E0,1.1146938E0,2.6369288E0,1.2528401E3,5.388174E0,6.807678E0,1.2204367E0,6.622574E1,1.0190685E0,1.274711E0,1.3089002E0,1.192839E3,1.9075832E0,1.3967451E0,3.00216E0,1.2498098E3,3.0302477E0,1.1069859E0,4.281188E0,1.1917107E3,1.1283675E0],"tree_param":{"num_deleted":"0","num_feature":"1971","num_nodes":"43","size_leaf_vector":"1"}},{"base_weights":[1.1008459E-2,1.3285819E0,-1.463511E0,1.5051327E0,-1.3228319E0,-1.518846E0,1.1056402E0,1.5267328E0,-1.2316818E0,-1.4595004E0,9.858836E-1,-1.5265938E0,5.2308828E-2,1.457119E0,-5.901445E-2,1.5335113E0,-5.6944873E-2,7.2955186E-3,-7.0456594E-2,-1.5215428E0,4.2073274E-1,6.0432684E-2,3.8276408E-3,-1.5319724E0,5.5162277E-2,7.58111E-2,7.654323E-3,1.5371578E0,-3.4176957E-2,-7.673455E-2,-1.304617E-2,-1.760001E-2,4.6103388E-2,-1.5346836E0,2.9391155E-2,7.691719E-2,4.9360557E-3,-7.682656E-2,1.04563795E-2],"categories":[],"categories_nodes":[],"categories_segments":[],"categories_sizes":[],"default_left":[0,0,0,0,0,0,0,0,0,0,0,0,0,0,0,0,0,0,0,0,0,0,0,0,0,0,0,0,0,0,0,0,0,0,0,0,0,0,0],"id":7,"left_children":[1,3,5,7,9,11,13,15,17,19,21,23,-1,25,-1,27,-1,-1,-1,29,31,-1,-1,33,-1,-1,-1,35,-1,-1,-1,-1,-1,37,-1,-1,-1,-1,-1],"loss_changes":[4.949323E3,6.317683E2,1.725852E2,7.647485E1,2.8108566E1,2.4992432E1,2.2549826E1,2.4376465E1,2.7563505E0,9.996185E0,9.8530436E-1,1.8297607E1,0E0,1.5342369E0,0E0,1.115332E1,0E0,0E0,0E0,8.9004517E-1,1.6205379E0,0E0,0E0,7.638916E0,0E0,0E0,0E0,1.9770508E0,0E0,0E0,0E0,0E0,0E0,4.093506E0,0E0,0E0,0E0,0E0,0E0],"parents":[2147483647,0,0,1,1,2,2,3,3,4,4,5,5,6,6,7,7,8,8,9,9,10,10,11,11,13,13,15,15,19,19,20,20,23,23,27,27,33,33],"right_children":[2,4,6,8,10,12,14,16,18,20,22,24,-1,26,-1,28,-1,-1,-1,30,32,-1,-1,34,-1,-1,-1,36,-1,-1,-1,-1,-1,38,-1,-1,-1,-1,-1],"split_conditions":[9.0621066E-1,1.9433919E0,1.0380117E0,1.3899807E0,5.346283E-1,2.2117195E0,2.3981225E0,1.7730489E0,2.2837906E-1,8.580305E-1,1.2418591E0,8.6617154E-1,5.2308828E-2,6.051337E-1,-5.901445E-2,1.3625476E0,-5.6944873E-2,7.2955186E-3,-7.0456594E-2,1.250002E0,7.1207E-1,6.0432684E-2,3.8276408E-3,1.3804356E0,5.5162277E-2,7.58111E-2,7.654323E-3,1.3262835E0,-3.4176957E-2,-7.673455E-2,-1.304617E-2,-1.760001E-2,4.6103388E-2,2.2201266E0,2.9391155E-2,7.691719E-2,4.9360557E-3,-7.682656E-2,1.04563795E-2],"split_indices":[492,238,1119,783,130,358,108,673,472,1119,1766,1258,0,471,0,155,0,0,0,893,403,0,0,914,0,0,0,1470,0,0,0,0,0,1683,0,0,0,0,0],"split_type":[0,0,0,0,0,0,0,0,0,0,0,0,0,0,0,0,0,0,0,0,0,0,0,0,0,0,0,0,0,0,0,0,0,0,0,0,0,0,0],"sum_hessian":[2.5455364E3,1.3443639E3,1.2011725E3,1.2608401E3,8.352377E1,1.176247E3,2.492552E1,1.2514056E3,9.434456E0,7.920303E1,4.320734E0,1.1731084E3,3.1385572E0,2.191803E1,3.0074918E0,1.248655E3,2.7505574E0,1.0968736E0,8.337582E0,7.685772E1,2.345318E0,3.2061222E0,1.1146121E0,1.1711306E3,1.9777529E0,2.081204E1,1.1059884E0,1.2469109E3,1.7441862E0,7.5849205E1,1.0085156E0,1.040074E0,1.305244E0,1.1699103E3,1.2203116E0,1.2458143E3,1.0965483E0,1.1687909E3,1.119437E0],"tree_param":{"num_deleted":"0","num_feature":"1971","num_nodes":"39","size_leaf_vector":"1"}},{"base_weights":[-1.699037E-2,1.2913977E0,-1.4236208E0,1.4645239E0,-1.2192292E0,-1.4738746E0,1.1968544E0,1.4872037E0,-6.884869E-2,-1.4285655E0,7.644017E-1,-1.4873116E0,9.70185E-1,-3.889834E-2,7.307043E-2,1.4940505E0,-7.1462E-1,-1.4825479E0,3.5721764E-2,6.201605E-2,-4.853434E-2,-1.4935523E0,8.4591E-1,-2.0899748E-2,6.661087E-2,1.4976516E0,-2.2304714E-1,9.31177E-3,-5.3692658E-2,-7.476454E-2,-1.3744322E-2,-1.4969473E0,4.4649392E-2,9.603119E-3,5.220906E-2,7.497558E-2,-4.450741E-3,-4.3739308E-2,2.6317915E-2,-7.493626E-2,9.918119E-3],"categories":[],"categories_nodes":[],"categories_segments":[],"categories_sizes":[],"default_left":[0,0,0,0,0,0,0,0,0,0,0,0,0,0,0,0,0,0,0,0,0,0,0,0,0,0,0,0,0,0,0,0,0,0,0,0,0,0,0,0,0],"id":8,"left_children":[1,3,5,7,9,11,13,15,-1,17,19,21,23,-1,-1,25,27,29,-1,-1,-1,31,33,-1,-1,35,37,-1,-1,-1,-1,39,-1,-1,-1,-1,-1,-1,-1,-1,-1],"loss_changes":[4.5658916E3,5.604663E2,1.5920532E2,7.956616E1,3.5749153E1,3.9981934E1,1.3178318E1,1.906543E1,0E0,9.833069E0,8.320816E0,1.8263184E1,4.0857296E0,0E0,0E0,7.6950684E0,1.6165609E0,7.324524E-1,0E0,0E0,0E0,1.0773682E1,2.859633E-1,0E0,0E0,3.6398926E0,2.1023812E0,0E0,0E0,0E0,0E0,3.8044434E0,0E0,0E0,0E0,0E0,0E0,0E0,0E0,0E0,0E0],"parents":[2147483647,0,0,1,1,2,2,3,3,4,4,5,5,6,6,7,7,9,9,10,10,11,11,12,12,15,15,16,16,17,17,21,21,22,22,25,25,26,26,31,31],"right_children":[2,4,6,8,10,12,14,16,-1,18,20,22,24,-1,-1,26,28,30,-1,-1,-1,32,34,-1,-1,36,38,-1,-1,-1,-1,40,-1,-1,-1,-1,-1,-1,-1,-1,-1],"split_conditions":[9.0621066E-1,1.8948145E0,1.3575954E0,1.7915511E0,1.0683539E0,2.2279782E0,4.0339255E-1,1.3249131E0,-6.884869E-2,2.4677439E0,1.1563071E0,1.7599797E0,1.8670125E-1,-3.889834E-2,7.307043E-2,1.2114089E0,3.7368348E0,1.9713649E0,3.5721764E-2,6.201605E-2,-4.853434E-2,2.3633502E0,8.063054E-1,-2.0899748E-2,6.661087E-2,3.9709053E0,2.1363364E-1,9.31177E-3,-5.3692658E-2,-7.476454E-2,-1.3744322E-2,1.4478947E0,4.4649392E-2,9.603119E-3,5.220906E-2,7.497558E-2,-4.450741E-3,-4.3739308E-2,2.6317915E-2,-7.493626E-2,9.918119E-3],"split_indices":[492,238,449,1040,423,1323,423,210,0,1323,1020,539,873,0,0,1360,1498,873,0,0,0,1268,46,0,0,1546,1564,0,0,0,0,1207,0,0,0,0,0,0,0,0,0],"split_type":[0,0,0,0,0,0,0,0,0,0,0,0,0,0,0,0,0,0,0,0,0,0,0,0,0,0,0,0,0,0,0,0,0,0,0,0,0,0,0,0,0],"sum_hessian":[2.4788994E3,1.2843413E3,1.194558E3,1.2018795E3,8.2461784E1,1.17251E3,2.2048056E1,1.1928354E3,9.044128E0,7.4843254E1,7.6185265E0,1.1664883E3,6.0216985E0,2.3754358E0,1.967262E1,1.1894581E3,3.3773072E0,7.3304886E1,1.538367E0,6.2024136E0,1.416113E0,1.1637355E3,2.752812E0,1.2136172E0,4.808081E0,1.1870964E3,2.3617408E0,1.1001118E0,2.2771955E0,7.2303795E1,1.0010941E0,1.1624546E3,1.2809008E0,1.098599E0,1.654213E0,1.1857612E3,1.3351941E0,1.1736983E0,1.1880425E0,1.1613525E3,1.1020032E0],"tree_param":{"num_deleted":"0","num_feature":"1971","num_nodes":"41","size_leaf_vector":"1"}},{"base_weights":[1.007305E-2,1.2587413E0,-1.3825152E0,1.4308219E0,-1.2130212E0,-1.442015E0,1.0248445E0,1.4523066E0,-1.0954598E0,-1.430786E0,7.669188E-1,-1.4522034E0,7.1473664E-1,-9.75118E-1,1.3679571E0,1.4603494E0,-5.744889E-1,-6.719778E-2,2.5062352E-2,-7.2812594E-2,8.528284E-3,6.622972E-2,-5.2308924E-2,-1.4584962E0,5.608496E-2,-3.999045E-2,6.1824687E-2,-5.54658E-2,-1.1980084E-2,7.234721E-2,-1.9767524E-3,1.4621111E0,-1.4492311E-2,-5.8568437E-2,4.0582936E-2,-1.4622531E0,1.8249021E-1,7.316429E-2,4.452919E-3,-7.316458E-2,-7.961841E-3,-3.86271E-2,4.8293456E-2],"categories":[],"categories_nodes":[],"categories_segments":[],"categories_sizes":[],"default_left":[0,0,0,0,0,0,0,0,0,0,0,0,0,0,0,0,0,0,0,0,0,0,0,0,0,0,0,0,0,0,0,0,0,0,0,0,0,0,0,0,0,0,0],"id":9,"left_children":[1,3,5,7,9,11,13,15,17,19,21,23,25,27,29,31,33,-1,-1,-1,-1,-1,-1,35,-1,-1,-1,-1,-1,-1,-1,37,-1,-1,-1,39,41,-1,-1,-1,-1,-1,-1],"loss_changes":[4.1932134E3,5.4252295E2,1.6477222E2,6.6132324E1,3.701055E1,2.5493652E1,2.0603863E1,2.0066895E1,4.8785257E0,3.3227844E0,1.0389226E1,1.9583252E1,5.6536083E0,1.9772482E-1,2.768242E0,4.046875E0,5.401825E0,0E0,0E0,0E0,0E0,0E0,0E0,7.0839844E0,0E0,0E0,0E0,0E0,0E0,0E0,0E0,1.7634277E0,0E0,0E0,0E0,1.2600098E0,3.3009856E0,0E0,0E0,0E0,0E0,0E0,0E0],"parents":[2147483647,0,0,1,1,2,2,3,3,4,4,5,5,6,6,7,7,8,8,9,9,10,10,11,11,12,12,13,13,14,14,15,15,16,16,23,23,31,31,35,35,36,36],"right_children":[2,4,6,8,10,12,14,16,18,20,22,24,26,28,30,32,34,-1,-1,-1,-1,-1,-1,36,-1,-1,-1,-1,-1,-1,-1,38,-1,-1,-1,40,42,-1,-1,-1,-1,-1,-1],"split_conditions":[9.0621066E-1,1.9433919E0,1.0380117E0,1.3899807E0,5.6331575E-1,1.4929177E0,3.5724586E-1,1.5478401E0,1.1211082E0,1.059222E0,1.4536465E0,2.4557619E-1,4.1128182E-1,1.1211082E0,5.7202035E-1,1.620516E0,7.8769445E-1,-6.719778E-2,2.5062352E-2,-7.2812594E-2,8.528284E-3,6.622972E-2,-5.2308924E-2,2.3673737E-1,5.608496E-2,-3.999045E-2,6.1824687E-2,-5.54658E-2,-1.1980084E-2,7.234721E-2,-1.9767524E-3,1.8352534E0,-1.4492311E-2,-5.8568437E-2,4.0582936E-2,1.2954173E0,2.5630745E-1,7.316429E-2,4.452919E-3,-7.316458E-2,-7.961841E-3,-3.86271E-2,4.8293456E-2],"split_indices":[492,238,1119,783,657,449,1683,979,97,893,104,1932,1256,481,1871,1580,243,0,0,0,0,0,0,1447,0,0,0,0,0,0,0,265,0,0,0,885,35,0,0,0,0,0,0],"split_type":[0,0,0,0,0,0,0,0,0,0,0,0,0,0,0,0,0,0,0,0,0,0,0,0,0,0,0,0,0,0,0,0,0,0,0,0,0,0,0,0,0,0,0],"sum_hessian":[2.4094434E3,1.2704166E3,1.1390266E3,1.1881224E3,8.229427E1,1.1119451E3,2.7081608E1,1.1785248E3,9.597629E0,7.4389824E1,7.904447E0,1.1070421E3,4.9029384E0,3.6960127E0,2.3385595E1,1.1741449E3,4.379828E0,8.442081E0,1.1555469E0,7.331453E1,1.0752944E0,6.2511406E0,1.6533064E0,1.1047744E3,2.2676508E0,1.119721E0,3.7832174E0,2.6959176E0,1.0000952E0,2.2116415E1,1.2691802E0,1.1731288E3,1.0161873E0,3.1698337E0,1.2099944E0,1.1023596E3,2.4148293E0,1.1720603E3,1.0684983E0,1.1013588E3,1.0008196E0,1.0944265E0,1.3204026E0],"tree_param":{"num_deleted":"0","num_feature":"1971","num_nodes":"43","size_leaf_vector":"1"}},{"base_weights":[3.4787608E-3,1.2213453E0,-1.3590493E0,1.3872879E0,-1.1762838E0,-1.415051E0,1.0873007E0,1.4164388E0,-7.1486014E-1,-1.3570051E0,1.0291877E0,-1.4211304E0,4.5417618E-2,-5.4027464E-2,7.0324324E-2,1.4232388E0,-4.521201E-2,-1.3032703E0,4.9650967E-2,-1.3974311E0,3.10646E-2,6.1559595E-2,-2.1963338E-4,-1.4270872E0,7.379002E-1,1.4268637E0,-3.276383E-2,-6.8073966E-2,-1.9067932E-2,-7.118463E-2,1.0153279E-2,-1.4287068E0,6.978497E-3,4.77201E-2,5.2140313E-3,7.14662E-2,-2.3619689E-2,-7.153318E-2,-1.1379722E-2],"categories":[],"categories_nodes":[],"categories_segments":[],"categories_sizes":[],"default_left":[0,0,0,0,0,0,0,0,0,0,0,0,0,0,0,0,0,0,0,0,0,0,0,0,0,0,0,0,0,0,0,0,0,0,0,0,0,0,0],"id":10,"left_children":[1,3,5,7,9,11,13,15,17,19,21,23,-1,-1,-1,25,-1,27,-1,29,-1,-1,-1,31,33,35,-1,-1,-1,-1,-1,37,-1,-1,-1,-1,-1,-1,-1],"loss_changes":[3.8824463E3,4.9317188E2,1.5282288E2,7.1846924E1,3.3486694E1,1.6545654E1,1.9011194E1,1.9283447E1,1.7850185E1,6.8539886E0,1.3972616E0,1.4911377E1,0E0,0E0,0E0,9.505371E0,0E0,1.6154289E-1,0E0,3.384903E0,0E0,0E0,0E0,2.9265137E0,3.9761543E-1,5.982422E0,0E0,0E0,0E0,0E0,0E0,2.1984863E0,0E0,0E0,0E0,0E0,0E0,0E0,0E0],"parents":[2147483647,0,0,1,1,2,2,3,3,4,4,5,5,6,6,7,7,8,8,9,9,10,10,11,11,15,15,17,17,19,19,23,23,24,24,25,25,31,31],"right_children":[2,4,6,8,10,12,14,16,18,20,22,24,-1,-1,-1,26,-1,28,-1,30,-1,-1,-1,32,34,36,-1,-1,-1,-1,-1,38,-1,-1,-1,-1,-1,-1,-1],"split_conditions":[8.493603E-1,1.9898078E0,1.1860974E0,9.6245766E-1,9.648643E-1,2.9355016E-1,5.1270825E-1,1.4258889E0,4.6624693E-1,2.3549821E0,5.887483E-1,2.4677439E0,4.5417618E-2,-5.4027464E-2,7.0324324E-2,2.3229327E0,-4.521201E-2,2.7872208E-1,4.9650967E-2,5.1540047E-1,3.10646E-2,6.1559595E-2,-2.1963338E-4,2.09248E0,8.2006526E-1,1.7087688E0,-3.276383E-2,-6.8073966E-2,-1.9067932E-2,-7.118463E-2,1.0153279E-2,9.277521E-1,6.978497E-3,4.77201E-2,5.2140313E-3,7.14662E-2,-2.3619689E-2,-7.153318E-2,-1.1379722E-2],"split_indices":[673,238,657,1360,657,421,1119,1040,244,984,1085,1323,0,0,0,1409,0,1756,0,921,0,0,0,1752,265,1331,0,0,0,0,0,914,0,0,0,0,0,0,0],"split_type":[0,0,0,0,0,0,0,0,0,0,0,0,0,0,0,0,0,0,0,0,0,0,0,0,0,0,0,0,0,0,0,0,0,0,0,0,0,0,0],"sum_hessian":[2.3377002E3,1.2344326E3,1.1032676E3,1.1549207E3,7.951195E1,1.078989E3,2.4278563E1,1.1394459E3,1.5474732E1,7.384559E1,5.6663623E0,1.0765604E3,2.4285834E0,2.8097737E0,2.146879E1,1.1365026E3,2.943389E0,1.1685628E1,3.789104E0,7.2654526E1,1.1910577E0,4.580042E0,1.0863203E0,1.0739364E3,2.624011E0,1.1348369E3,1.6656281E0,1.054314E1,1.1424875E0,7.159032E1,1.0642102E0,1.0729154E3,1.0210594E0,1.5784125E0,1.0455985E0,1.133616E3,1.2210157E0,1.0709795E3,1.9359028E0],"tree_param":{"num_deleted":"0","num_feature":"1971","num_nodes":"39","size_leaf_vector":"1"}},{"base_weights":[-2.6555248E-3,1.2073461E0,-1.3238987E0,1.3710053E0,-1.1530787E0,-1.3702738E0,1.2800593E0,1.3910235E0,-9.8652685E-1,-1.3284088E0,4.9924493E-1,-1.3861257E0,9.32051E-1,-3.1730873E-3,6.8624295E-2,1.3976052E0,-4.0304735E-2,-6.510314E-2,3.8009018E-2,-6.9720834E-2,3.1420723E-2,5.694558E-2,-5.4197248E-2,-1.3931754E0,5.5903543E-2,-3.745544E-2,6.5290034E-2,1.3998734E0,-6.052283E-3,-1.3984014E0,7.028066E-1,7.004969E-2,4.784048E-3,-7.0012264E-2,4.369443E-3,6.462163E-3,4.4926513E-2],"categories":[],"categories_nodes":[],"categories_segments":[],"categories_sizes":[],"default_left":[0,0,0,0,0,0,0,0,0,0,0,0,0,0,0,0,0,0,0,0,0,0,0,0,0,0,0,0,0,0,0,0,0,0,0,0,0],"id":11,"left_children":[1,3,5,7,9,11,13,15,17,19,21,23,25,-1,-1,27,-1,-1,-1,-1,-1,-1,-1,29,-1,-1,-1,31,-1,33,35,-1,-1,-1,-1,-1,-1],"loss_changes":[3.6256943E3,4.5888208E2,1.3267041E2,5.3638428E1,2.3056717E1,4.0183105E1,2.5068913E0,1.7012695E1,6.451535E0,9.938042E0,9.480249E0,2.0248291E1,5.9324236E0,0E0,0E0,3.9436035E0,0E0,0E0,0E0,0E0,0E0,0E0,0E0,1.2552246E1,0E0,0E0,0E0,1.4643555E0,0E0,3.0095215E0,2.5348687E-1,0E0,0E0,0E0,0E0,0E0,0E0],"parents":[2147483647,0,0,1,1,2,2,3,3,4,4,5,5,6,6,7,7,8,8,9,9,10,10,11,11,12,12,15,15,23,23,27,27,29,29,30,30],"right_children":[2,4,6,8,10,12,14,16,18,20,22,24,26,-1,-1,28,-1,-1,-1,-1,-1,-1,-1,30,-1,-1,-1,32,-1,34,36,-1,-1,-1,-1,-1,-1],"split_conditions":[9.0621066E-1,1.8948145E0,1.9347142E0,1.4072031E0,9.568921E-1,1.3666917E0,3.368269E-1,1.7730489E0,2.26986E0,1.4742068E0,7.9937035E-1,2.4557619E-1,1.4461547E0,-3.1730873E-3,6.8624295E-2,1.2961884E0,-4.0304735E-2,-6.510314E-2,3.8009018E-2,-6.9720834E-2,3.1420723E-2,5.694558E-2,-5.4197248E-2,1.5496151E0,5.5903543E-2,-3.745544E-2,6.5290034E-2,1.7596611E0,-6.052283E-3,1.8456022E0,4.0194634E-1,7.004969E-2,4.784048E-3,-7.0012264E-2,4.369443E-3,6.462163E-3,4.4926513E-2],"split_indices":[492,238,1268,1350,423,94,508,673,94,984,211,1932,63,0,0,1793,0,0,0,0,0,0,0,765,0,0,0,506,0,1913,244,0,0,0,0,0,0],"split_type":[0,0,0,0,0,0,0,0,0,0,0,0,0,0,0,0,0,0,0,0,0,0,0,0,0,0,0,0,0,0,0,0,0,0,0,0,0],"sum_hessian":[2.2658928E3,1.1827815E3,1.0831115E3,1.106483E3,7.629843E1,1.0646248E3,1.8486658E1,1.0975732E3,8.909722E0,6.915622E1,7.1422143E0,1.05774E3,6.8847327E0,1.2100868E0,1.7276571E1,1.0946581E3,2.9152358E0,7.7620916E0,1.1476308E0,6.717758E1,1.978636E0,5.2867827E0,1.8554316E0,1.0552131E3,2.5269117E0,1.0695395E0,5.815193E0,1.0931036E3,1.554415E0,1.0529207E3,2.2925014E0,1.0920913E3,1.0123757E0,1.0516731E3,1.2474946E0,1.0056891E0,1.2868123E0],"tree_param":{"num_deleted":"0","num_feature":"1971","num_nodes":"37","size_leaf_vector":"1"}},{"base_weights":[4.616311E-3,1.1816998E0,-1.2966926E0,1.3304341E0,-1.2536452E0,-1.3575041E0,8.7485766E-1,1.360554E0,-1.0459379E0,-6.8421885E-2,4.5149562E-1,-1.3635554E0,5.1557887E-2,-9.3129534E-1,1.3238739E0,1.3686532E0,-5.4442085E-2,-6.4659856E-2,3.4164105E-2,-2.8355032E-2,5.100287E-2,-1.369268E0,4.900961E-2,-5.8187217E-2,7.733206E-3,6.842231E-2,8.368665E-3,1.3720586E0,-4.1517265E-2,-1.3719255E0,1.78107E-2,6.866586E-2,1.9292936E-3,-6.869217E-2,1.2624343E-2],"categories":[],"categories_nodes":[],"categories_segments":[],"categories_sizes":[],"default_left":[0,0,0,0,0,0,0,0,0,0,0,0,0,0,0,0,0,0,0,0,0,0,0,0,0,0,0,0,0,0,0,0,0,0,0],"id":12,"left_children":[1,3,5,7,9,11,13,15,17,-1,19,21,-1,23,25,27,-1,-1,-1,-1,-1,29,-1,-1,-1,-1,-1,31,-1,33,-1,-1,-1,-1,-1],"loss_changes":[3.3890752E3,4.224668E2,1.3995471E2,7.982361E1,1.3806892E1,1.6187134E1,2.4941088E1,2.2956299E1,6.9870253E0,0E0,3.4753098E0,1.5004517E1,0E0,1.7974601E0,9.991379E-1,9.219116E0,0E0,0E0,0E0,0E0,0E0,5.1585693E0,0E0,0E0,0E0,0E0,0E0,1.7558594E0,0E0,3.5152588E0,0E0,0E0,0E0,0E0,0E0],"parents":[2147483647,0,0,1,1,2,2,3,3,4,4,5,5,6,6,7,7,8,8,10,10,11,11,13,13,14,14,15,15,21,21,27,27,29,29],"right_children":[2,4,6,8,10,12,14,16,18,-1,20,22,-1,24,26,28,-1,-1,-1,-1,-1,30,-1,-1,-1,-1,-1,32,-1,34,-1,-1,-1,-1,-1],"split_conditions":[9.0621066E-1,2.77212E0,9.82081E-1,1.7730489E0,8.580305E-1,2.4557619E-1,3.9161184E-1,1.6266168E0,4.0194634E-1,-6.8421885E-2,5.3410196E-1,2.2117195E0,5.1557887E-2,2.216173E0,1.2735934E0,1.9551815E0,-5.4442085E-2,-6.4659856E-2,3.4164105E-2,-2.8355032E-2,5.100287E-2,1.5697688E0,4.900961E-2,-5.8187217E-2,7.733206E-3,6.842231E-2,8.368665E-3,1.7477351E0,-4.1517265E-2,1.2507132E0,1.78107E-2,6.866586E-2,1.9292936E-3,-6.869217E-2,1.2624343E-2],"split_indices":[492,1651,1119,673,1119,1932,63,1580,244,0,1583,358,0,1209,1638,155,0,0,0,0,0,914,0,0,0,0,0,783,0,885,0,0,0,0,0],"split_type":[0,0,0,0,0,0,0,0,0,0,0,0,0,0,0,0,0,0,0,0,0,0,0,0,0,0,0,0,0,0,0,0,0,0,0],"sum_hessian":[2.2105518E3,1.1607242E3,1.0498274E3,1.094343E3,6.638133E1,1.0215939E3,2.8233551E1,1.0810681E3,1.3274789E1,6.237933E1,4.0020022E0,1.0194404E3,2.153443E0,5.4075956E0,2.2825956E1,1.0779451E3,3.123099E0,1.1834707E1,1.440081E0,1.4345434E0,2.567459E0,1.0173765E3,2.0639355E0,4.3951817E0,1.012414E0,2.1802412E1,1.0235429E0,1.0766538E3,1.2912941E0,1.01601654E3,1.3599573E0,1.0756086E3,1.0450835E0,1.0149725E3,1.04405E0],"tree_param":{"num_deleted":"0","num_feature":"1971","num_nodes":"35","size_leaf_vector":"1"}},{"base_weights":[2.9874265E-3,1.1602281E0,-1.2804111E0,1.2809001E0,-1.0165783E0,-1.3275696E0,1.1021953E0,1.317263E0,-6.755567E-1,-1.2807171E0,1.0843228E0,-1.3402674E0,8.1576693E-1,6.5899126E-2,-4.3006092E-2,1.3322933E0,-1.0047724E0,-1.1050875E0,5.0400823E-2,-1.3243306E0,2.3315322E-2,5.7831366E-2,1.6596062E-2,-1.3448935E0,4.371728E-2,-3.5225805E-2,6.1320968E-2,1.3395033E0,-4.2162504E-2,-5.9522785E-2,3.293852E-3,2.8699202E-2,-6.4412005E-2,-6.692752E-2,-1.5936641E-2,-6.745423E-2,4.3669455E-2,6.716472E-2,-3.0825246E-2],"categories":[],"categories_nodes":[],"categories_segments":[],"categories_sizes":[],"default_left":[0,0,0,0,0,0,0,0,0,0,0,0,0,0,0,0,0,0,0,0,0,0,0,0,0,0,0,0,0,0,0,0,0,0,0,0,0,0,0],"id":13,"left_children":[1,3,5,7,9,11,13,15,17,19,21,23,25,-1,-1,27,29,31,-1,33,-1,-1,-1,35,-1,-1,-1,37,-1,-1,-1,-1,-1,-1,-1,-1,-1,-1,-1],"loss_changes":[3.1849702E3,2.975149E2,1.1571228E2,7.693201E1,3.4565887E1,2.8241821E1,9.721605E0,3.7974243E1,1.5695949E1,4.6990585E0,8.804321E-3,1.1338989E1,4.9198585E0,0E0,0E0,1.749585E1,1.5338483E0,5.8267765E0,0E0,3.2440186E-1,0E0,0E0,0E0,1.0385742E1,0E0,0E0,0E0,8.542603E0,0E0,0E0,0E0,0E0,0E0,0E0,0E0,0E0,0E0,0E0,0E0],"parents":[2147483647,0,0,1,1,2,2,3,3,4,4,5,5,6,6,7,7,8,8,9,9,10,10,11,11,12,12,15,15,16,16,17,17,19,19,23,23,27,27],"right_children":[2,4,6,8,10,12,14,16,18,20,22,24,26,-1,-1,28,30,32,-1,34,-1,-1,-1,36,-1,-1,-1,38,-1,-1,-1,-1,-1,-1,-1,-1,-1,-1,-1],"split_conditions":[8.493603E-1,1.4417028E0,1.4929177E0,1.3425657E0,1.240926E0,1.3931584E0,2.3352482E0,1.3899807E0,1.1581764E0,6.710068E-1,2.2433996E-1,2.3633502E0,3.514478E-1,6.5899126E-2,-4.3006092E-2,1.9547911E0,2.0104504E0,2.3256774E0,5.0400823E-2,2.0997772E0,2.3315322E-2,5.7831366E-2,1.6596062E-2,6.39565E-1,4.371728E-2,-3.5225805E-2,6.1320968E-2,2.30041E0,-4.2162504E-2,-5.9522785E-2,3.293852E-3,2.8699202E-2,-6.4412005E-2,-6.692752E-2,-1.5936641E-2,-6.745423E-2,4.3669455E-2,6.716472E-2,-3.0825246E-2],"split_indices":[673,1362,449,979,1119,94,647,783,449,122,163,1268,403,0,0,1872,1268,1546,0,1623,0,0,0,421,0,0,0,481,0,0,0,0,0,0,0,0,0,0,0],"split_type":[0,0,0,0,0,0,0,0,0,0,0,0,0,0,0,0,0,0,0,0,0,0,0,0,0,0,0,0,0,0,0,0,0,0,0,0,0,0,0],"sum_hessian":[2.1424702E3,1.1266583E3,1.01581195E3,1.0678721E3,5.8786274E1,9.9653064E2,1.9281313E1,1.0487074E3,1.9164658E1,5.256754E1,6.2187343E0,9.910341E2,5.496515E0,1.7666916E1,1.6143979E0,1.0423864E3,6.3209887E0,1.5542817E1,3.6218402E0,5.152324E1,1.0442975E0,5.1833744E0,1.03536E0,9.893602E2,1.6739129E0,1.0167577E0,4.479757E0,1.0393262E3,3.0601864E0,5.2913985E0,1.02959E0,1.3187858E0,1.4224031E1,5.0478344E1,1.0448962E0,9.878856E2,1.4746257E0,1.0376283E3,1.6978658E0],"tree_param":{"num_deleted":"0","num_feature":"1971","num_nodes":"39","size_leaf_vector":"1"}},{"base_weights":[-5.3688814E-3,1.14225E0,-1.256257E0,1.2954006E0,-1.1426535E0,-1.3062856E0,8.005927E-1,1.3176395E0,-1.0908151E0,-1.269986E0,7.366674E-1,-1.3142533E0,7.267186E-1,-6.292461E-1,6.5452024E-2,1.3251364E0,-2.1011645E-1,-6.1878122E-2,5.4501845E-3,-1.3048066E0,8.806748E-3,5.1579166E-2,-5.6888363E-3,-1.3195983E0,4.8586495E-2,4.96461E-2,-1.3152988E-3,-5.7047036E-2,4.1298777E-2,6.632274E-2,8.772086E-3,4.4903386E-2,-4.4172715E-2,-6.606307E-2,-9.383195E-3,-1.3242933E0,2.6356835E-2,-6.631688E-2,-1.9637631E-2],"categories":[],"categories_nodes":[],"categories_segments":[],"categories_sizes":[],"default_left":[0,0,0,0,0,0,0,0,0,0,0,0,0,0,0,0,0,0,0,0,0,0,0,0,0,0,0,0,0,0,0,0,0,0,0,0,0,0,0],"id":14,"left_children":[1,3,5,7,9,11,13,15,17,19,21,23,25,27,-1,29,31,-1,-1,33,-1,-1,-1,35,-1,-1,-1,-1,-1,-1,-1,-1,-1,-1,-1,37,-1,-1,-1],"loss_changes":[2.980152E3,3.803479E2,1.0325708E2,5.5307617E1,1.7337563E1,1.6668945E1,1.8421528E1,1.18029785E1,1.8816128E0,3.4806976E0,1.3669603E0,1.3093628E1,9.1435766E-1,6.173458E0,0E0,1.2850342E0,5.103883E0,0E0,0E0,9.1309357E-1,0E0,0E0,0E0,9.063477E0,0E0,0E0,0E0,0E0,0E0,0E0,0E0,0E0,0E0,0E0,0E0,1.3123779E0,0E0,0E0,0E0],"parents":[2147483647,0,0,1,1,2,2,3,3,4,4,5,5,6,6,7,7,8,8,9,9,10,10,11,11,12,12,13,13,15,15,16,16,19,19,23,23,35,35],"right_children":[2,4,6,8,10,12,14,16,18,20,22,24,26,28,-1,30,32,-1,-1,34,-1,-1,-1,36,-1,-1,-1,-1,-1,-1,-1,-1,-1,-1,-1,38,-1,-1,-1],"split_conditions":[9.0621066E-1,1.9433919E0,1.0380117E0,1.4258889E0,1.240926E0,1.7639989E0,1.35141E0,1.3320025E0,1.1401403E0,6.0902876E-1,7.137665E-1,5.9780836E-1,1.587562E0,2.3933323E-1,6.5452024E-2,3.8920443E0,1.5015805E0,-6.1878122E-2,5.4501845E-3,8.904241E-1,8.806748E-3,5.1579166E-2,-5.6888363E-3,2.2279782E0,4.8586495E-2,4.96461E-2,-1.3152988E-3,-5.7047036E-2,4.1298777E-2,6.632274E-2,8.772086E-3,4.4903386E-2,-4.4172715E-2,-6.606307E-2,-9.383195E-3,1.6884553E0,2.6356835E-2,-6.631688E-2,-1.9637631E-2],"split_indices":[492,238,1119,1040,1119,1445,63,673,1884,1588,472,1258,177,66,0,1546,283,0,0,59,0,0,0,1323,0,0,0,0,0,0,0,0,0,0,0,1777,0,0,0],"split_type":[0,0,0,0,0,0,0,0,0,0,0,0,0,0,0,0,0,0,0,0,0,0,0,0,0,0,0,0,0,0,0,0,0,0,0,0,0,0,0],"sum_hessian":[2.0739763E3,1.0816816E3,9.922946E2,1.0141398E3,6.754192E1,9.690885E2,2.3206133E1,1.0052192E3,8.920553E0,6.3559692E1,3.9822283E0,9.656574E2,3.43105E0,6.025068E0,1.7181065E1,1.0004425E3,4.776713E0,7.920371E0,1.0001825E0,6.216067E1,1.3990191E0,2.7987037E0,1.1835246E0,9.638266E2,1.8308455E0,2.299552E0,1.131498E0,4.617426E0,1.4076419E0,9.991432E2,1.2993298E0,1.6792448E0,3.0974681E0,6.1078312E1,1.0823623E0,9.616646E2,2.1619494E0,9.591359E2,2.52868E0],"tree_param":{"num_deleted":"0","num_feature":"1971","num_nodes":"39","size_leaf_vector":"1"}},{"base_weights":[1.3810256E-2,1.1352489E0,-1.1918459E0,1.2712921E0,-9.7542864E-1,-1.2682847E0,6.4237785E-1,1.2951325E0,-7.982512E-1,-1.218616E0,5.8337357E-2,-1.2962474E0,1.1424061E0,1.0830214E0,-1.0981717E0,1.3023585E0,-5.708604E-1,-5.62177E-2,4.06139E-2,-1.2600671E0,2.5491705E-2,-1.3000151E0,4.16659E-2,6.1649825E-2,9.5102815E-3,1.2273762E0,-4.2232394E-2,-5.8901913E-2,-1.2824997E-2,1.3044052E0,-1.47135025E-2,-4.6858028E-2,1.3040647E-2,-6.4758785E-2,1.2557234E-2,-1.3037246E0,1.9707863E-1,6.467282E-2,-7.2869556E-3,6.527729E-2,1.0343932E-2,-6.5265715E-2,-2.349161E-4,-1.3178781E-2,2.7411913E-2],"categories":[],"categories_nodes":[],"categories_segments":[],"categories_sizes":[],"default_left":[0,0,0,0,0,0,0,0,0,0,0,0,0,0,0,0,0,0,0,0,0,0,0,0,0,0,0,0,0,0,0,0,0,0,0,0,0,0,0,0,0,0,0,0,0],"id":15,"left_children":[1,3,5,7,9,11,13,15,17,19,-1,21,23,25,27,29,31,-1,-1,33,-1,35,-1,-1,-1,37,-1,-1,-1,39,-1,-1,-1,-1,-1,41,43,-1,-1,-1,-1,-1,-1,-1,-1],"loss_changes":[2.7049658E3,2.9886426E2,1.3598865E2,4.9098267E1,3.4412495E1,6.389392E1,3.1280638E1,1.3734497E1,7.0649443E0,4.7521057E0,0E0,8.430542E0,7.2711086E-1,9.888901E0,2.640152E-1,3.5211182E0,1.5884566E0,0E0,0E0,3.3126373E0,0E0,5.3358154E0,0E0,0E0,0E0,2.9108658E0,0E0,0E0,0E0,9.304199E-1,0E0,0E0,0E0,0E0,0E0,1.8778076E0,6.506689E-1,0E0,0E0,0E0,0E0,0E0,0E0,0E0,0E0],"parents":[2147483647,0,0,1,1,2,2,3,3,4,4,5,5,6,6,7,7,8,8,9,9,11,11,12,12,13,13,14,14,15,15,16,16,19,19,21,21,25,25,29,29,35,35,36,36],"right_children":[2,4,6,8,10,12,14,16,18,20,-1,22,24,26,28,30,32,-1,-1,34,-1,36,-1,-1,-1,38,-1,-1,-1,40,-1,-1,-1,-1,-1,42,44,-1,-1,-1,-1,-1,-1,-1,-1],"split_conditions":[1.5590827E0,8.182917E-1,1.0683539E0,1.0501379E0,1.4256488E0,2.4677439E0,3.0750828E0,1.7615753E0,7.3718184E-1,4.595615E-1,5.8337357E-2,2.4557619E-1,7.7694225E-1,3.816732E0,5.6481856E-1,1.620516E0,3.2721648E-1,-5.62177E-2,4.06139E-2,1.5069813E0,2.5491705E-2,2.8159661E0,4.16659E-2,6.1649825E-2,9.5102815E-3,9.7380066E-1,-4.2232394E-2,-5.8901913E-2,-1.2824997E-2,3.1699955E0,-1.47135025E-2,-4.6858028E-2,1.3040647E-2,-6.4758785E-2,1.2557234E-2,1.588104E0,3.1444557E0,6.467282E-2,-7.2869556E-3,6.527729E-2,1.0343932E-2,-6.5265715E-2,-2.349161E-4,-1.3178781E-2,2.7411913E-2],"split_indices":[238,1360,423,335,358,1323,1651,1867,1913,786,0,1932,332,717,1516,1580,1108,0,0,860,0,63,0,0,0,1615,0,0,0,766,0,0,0,0,0,365,717,0,0,0,0,0,0,0,0],"split_type":[0,0,0,0,0,0,0,0,0,0,0,0,0,0,0,0,0,0,0,0,0,0,0,0,0,0,0,0,0,0,0,0,0,0,0,0,0,0,0,0,0,0,0,0,0],"sum_hessian":[1.9986108E3,1.0355005E3,9.6311035E2,9.731726E2,6.2327908E1,9.24876E2,3.8234398E1,9.624596E2,1.0713019E1,5.6360767E1,5.967141E0,9.1472784E2,1.0148076E1,3.0811758E1,7.4226418E0,9.590478E2,3.411843E0,9.160132E0,1.552887E0,5.5305435E1,1.0553333E0,9.135012E2,1.2266433E0,8.997209E0,1.1508669E0,2.9003124E1,1.8086327E0,6.4143414E0,1.0083007E0,9.5800275E2,1.0449988E0,2.2805612E0,1.131282E0,5.4189457E1,1.1159754E0,9.113722E2,2.1290593E0,2.7726803E1,1.276321E0,9.568189E2,1.183876E0,9.102534E2,1.1187253E0,1.0288365E0,1.1002228E0],"tree_param":{"num_deleted":"0","num_feature":"1971","num_nodes":"45","size_leaf_vector":"1"}},{"base_weights":[6.9941237E-4,1.1116982E0,-1.214053E0,1.2228533E0,-1.158384E0,-1.2684788E0,7.5602394E-1,1.2741727E0,-1.1537467E0,-1.2410364E0,3.274211E-2,-1.273817E0,4.6435494E-2,-4.845219E-1,6.1926216E-2,1.2806958E0,-6.333845E-1,-6.1912473E-2,1.3036581E-2,-6.421379E-2,1.6576307E-2,-1.2801957E0,6.0639083E-1,-5.5233974E-2,3.9977167E-2,1.2847587E0,-4.1645724E-2,-4.3162066E-2,-3.8136566E-6,-1.2850225E0,3.1005252E-2,-4.848798E-4,4.2906962E-2,6.431961E-2,-2.3379808E-3,-6.430847E-2,-7.400629E-3],"categories":[],"categories_nodes":[],"categories_segments":[],"categories_sizes":[],"default_left":[0,0,0,0,0,0,0,0,0,0,0,0,0,0,0,0,0,0,0,0,0,0,0,0,0,0,0,0,0,0,0,0,0,0,0,0,0],"id":16,"left_children":[1,3,5,7,9,11,13,15,17,19,-1,21,-1,23,-1,25,27,-1,-1,-1,-1,29,31,-1,-1,33,-1,-1,-1,35,-1,-1,-1,-1,-1,-1,-1],"loss_changes":[2.6063555E3,2.5594019E2,9.987561E1,1.18811646E2,7.946186E0,1.1716919E1,1.5820061E1,1.2535645E1,2.8162632E0,3.5447083E0,0E0,1.1526489E1,0E0,7.1257668E0,0E0,9.136475E0,5.6477547E-1,0E0,0E0,0E0,0E0,8.9938965E0,5.836235E-1,0E0,0E0,2.1002197E0,0E0,0E0,0E0,9.724121E-1,0E0,0E0,0E0,0E0,0E0,0E0,0E0],"parents":[2147483647,0,0,1,1,2,2,3,3,4,4,5,5,6,6,7,7,8,8,9,9,11,11,13,13,15,15,16,16,21,21,22,22,25,25,29,29],"right_children":[2,4,6,8,10,12,14,16,18,20,-1,22,-1,24,-1,26,28,-1,-1,-1,-1,30,32,-1,-1,34,-1,-1,-1,36,-1,-1,-1,-1,-1,-1,-1],"split_conditions":[9.0621066E-1,1.0937032E0,9.82081E-1,1.6861578E0,1.4202307E0,2.4557619E-1,3.6761543E-1,1.3625476E0,4.0339255E-1,2.7001083E0,3.274211E-2,1.678017E0,4.6435494E-2,1.2377887E0,6.1926216E-2,2.3229327E0,9.9254084E-1,-6.1912473E-2,1.3036581E-2,-6.421379E-2,1.6576307E-2,2.2279782E0,7.609231E-1,-5.5233974E-2,3.9977167E-2,1.4798143E0,-4.1645724E-2,-4.3162066E-2,-3.8136566E-6,1.3594208E0,3.1005252E-2,-4.848798E-4,4.2906962E-2,6.431961E-2,-2.3379808E-3,-6.430847E-2,-7.400629E-3],"split_indices":[492,783,1119,673,394,1932,1268,155,423,1913,0,423,0,98,0,1409,1013,0,0,0,0,1323,684,0,0,335,0,0,0,122,0,0,0,0,0,0,0],"split_type":[0,0,0,0,0,0,0,0,0,0,0,0,0,0,0,0,0,0,0,0,0,0,0,0,0,0,0,0,0,0,0,0,0,0,0,0,0],"sum_hessian":[1.9292223E3,1.0076876E3,9.215347E2,9.610889E2,4.6598667E1,8.9710724E2,2.442748E1,9.4122833E2,1.9860619E1,4.4868965E1,1.7297033E0,8.953522E2,1.7550769E0,6.839193E0,1.7588287E1,9.3834814E2,2.8802004E0,1.8858572E1,1.0020456E0,4.3846672E1,1.0222899E0,8.9264294E2,2.7092485E0,4.7060437E0,2.1331491E0,9.369393E2,1.4088752E0,1.8468331E0,1.0333673E0,8.907043E2,1.9386202E0,1.0648311E0,1.6444175E0,9.358251E2,1.114169E0,8.8967566E2,1.0286381E0],"tree_param":{"num_deleted":"0","num_feature":"1971","num_nodes":"37","size_leaf_vector":"1"}},{"base_weights":[-8.1288785E-4,-1.0480893E0,1.2284077E0,4.2595628E-1,-1.248376E0,1.258378E0,-6.411752E-1,1.1360494E0,-1.1319597E0,-1.2544461E0,4.7651958E-2,1.2639309E0,-4.7221076E-2,-5.8909047E-2,4.636641E-2,1.2239145E0,-7.0857495E-1,-1.2387688E0,2.6921624E-2,-1.2627469E0,3.86675E-1,1.266922E0,-2.1840936E-2,1.2516773E0,-2.000877E-2,-4.568599E-2,-1.8254839E-4,-6.273582E-2,-1.8466627E-2,-1.2654673E0,2.347964E-2,4.5412708E-2,-3.583464E-2,6.341756E-2,1.0292157E-2,6.3117765E-2,1.1115616E-2,-6.341582E-2,1.4604585E-2],"categories":[],"categories_nodes":[],"categories_segments":[],"categories_sizes":[],"default_left":[0,0,0,0,0,0,0,0,0,0,0,0,0,0,0,0,0,0,0,0,0,0,0,0,0,0,0,0,0,0,0,0,0,0,0,0,0,0,0],"id":17,"left_children":[1,3,5,7,9,11,13,15,17,19,-1,21,-1,-1,-1,23,25,27,-1,29,31,33,-1,35,-1,-1,-1,-1,-1,37,-1,-1,-1,-1,-1,-1,-1,-1,-1],"loss_changes":[2.3925115E3,2.9680237E2,4.871338E1,1.3491002E2,1.3004883E1,1.1490723E1,1.301272E1,1.4395874E1,7.5035515E0,1.2499634E1,0E0,4.8275146E0,0E0,0E0,0E0,4.109886E0,6.37074E-1,4.0161133E-2,0E0,4.7296143E0,3.645174E0,1.0108643E0,0E0,5.870285E-1,0E0,0E0,0E0,0E0,0E0,4.2598877E0,0E0,0E0,0E0,0E0,0E0,0E0,0E0,0E0,0E0],"parents":[2147483647,0,0,1,1,2,2,3,3,4,4,5,5,6,6,7,7,8,8,9,9,11,11,15,15,16,16,17,17,19,19,20,20,21,21,23,23,29,29],"right_children":[2,4,6,8,10,12,14,16,18,20,-1,22,-1,-1,-1,24,26,28,-1,30,32,34,-1,36,-1,-1,-1,-1,-1,38,-1,-1,-1,-1,-1,-1,-1,-1,-1],"split_conditions":[5.1270825E-1,2.0519962E0,2.1723397E0,4.9434683E-1,8.6617154E-1,8.546021E-1,1.2068739E0,3.7117603E-1,4.8178712E-1,1.275791E0,4.7651958E-2,1.9299668E0,-4.7221076E-2,-5.8909047E-2,4.636641E-2,2.0116491E0,4.223131E-1,1.4599595E0,2.6921624E-2,2.2899292E0,1.1703779E0,1.6146852E0,-2.1840936E-2,1.2851092E0,-2.000877E-2,-4.568599E-2,-1.8254839E-4,-6.273582E-2,-1.8466627E-2,1.9905577E0,2.347964E-2,4.5412708E-2,-3.583464E-2,6.341756E-2,1.0292157E-2,6.3117765E-2,1.1115616E-2,-6.341582E-2,1.4604585E-2],"split_indices":[1119,1546,673,1867,1258,239,1683,1360,657,1009,0,1362,0,0,0,108,1236,494,0,523,1362,587,0,211,0,0,0,0,0,121,0,0,0,0,0,0,0,0,0],"split_type":[0,0,0,0,0,0,0,0,0,0,0,0,0,0,0,0,0,0,0,0,0,0,0,0,0,0,0,0,0,0,0,0,0,0,0,0,0,0,0],"sum_hessian":[1.8565015E3,1.00251874E3,8.5398267E2,1.1978842E2,8.8273035E2,8.408306E2,1.3151995E1,8.246976E1,3.7318665E1,8.80732E2,1.9983346E0,8.3914154E2,1.6891146E0,9.982987E0,3.1690075E0,7.9041275E1,3.4284847E0,3.531869E1,1.9999701E0,8.765291E2,4.202898E0,8.379229E2,1.2186009E0,7.793828E1,1.1030004E0,2.4262178E0,1.0022669E0,3.424737E1,1.0713216E0,8.754239E2,1.1052043E0,2.973916E0,1.2289819E0,8.366008E2,1.3221371E0,7.691407E1,1.0242028E0,8.7401086E2,1.4130486E0],"tree_param":{"num_deleted":"0","num_feature":"1971","num_nodes":"39","size_leaf_vector":"1"}},{"base_weights":[3.3528258E-3,1.0692779E0,-1.1850754E0,1.1859365E0,-1.1733246E0,-1.2350547E0,8.242098E-1,1.22068E0,-9.986165E-1,-1.217705E0,1.9675173E-2,-1.241279E0,4.6714045E-2,1.128679E0,-4.060974E-2,1.2439424E0,-9.3089926E-1,-6.0230196E-2,3.574123E-2,-6.2150873E-2,-2.9216984E-3,-1.2471931E0,3.3231433E-2,6.147791E-2,-6.5695457E-3,1.2479291E0,-3.9616447E-2,-5.653435E-2,1.7277835E-2,-1.2499237E0,1.2161896E-2,6.252162E-2,-1.2416606E-2,-6.255471E-2,-7.072389E-3],"categories":[],"categories_nodes":[],"categories_segments":[],"categories_sizes":[],"default_left":[0,0,0,0,0,0,0,0,0,0,0,0,0,0,0,0,0,0,0,0,0,0,0,0,0,0,0,0,0,0,0,0,0,0,0],"id":18,"left_children":[1,3,5,7,9,11,13,15,17,19,-1,21,-1,23,-1,25,27,-1,-1,-1,-1,29,-1,-1,-1,31,-1,-1,-1,33,-1,-1,-1,-1,-1],"loss_changes":[2.3005066E3,2.5185388E2,8.7248535E1,7.0326416E1,3.8058777E0,1.2478149E1,1.1598955E1,4.6039062E1,6.0862455E0,1.2997131E0,0E0,1.0255005E1,0E0,2.512579E0,0E0,8.194092E0,2.9825592E0,0E0,0E0,0E0,0E0,3.6983643E0,0E0,0E0,0E0,3.6298828E0,0E0,0E0,0E0,9.0319824E-1,0E0,0E0,0E0,0E0,0E0],"parents":[2147483647,0,0,1,1,2,2,3,3,4,4,5,5,6,6,7,7,8,8,9,9,11,11,13,13,15,15,16,16,21,21,25,25,29,29],"right_children":[2,4,6,8,10,12,14,16,18,20,-1,22,-1,24,-1,26,28,-1,-1,-1,-1,30,-1,-1,-1,32,-1,-1,-1,34,-1,-1,-1,-1,-1],"split_conditions":[9.0621066E-1,1.1071513E0,1.0380117E0,1.1493376E0,1.5804021E0,2.4557619E-1,2.449453E0,1.7730489E0,6.7585707E-1,3.5355702E-1,1.9675173E-2,2.2201266E0,4.6714045E-2,2.8845072E0,-4.060974E-2,1.6266168E0,1.9129027E0,-6.0230196E-2,3.574123E-2,-6.2150873E-2,-2.9216984E-3,1.573471E0,3.3231433E-2,6.147791E-2,-6.5695457E-3,1.5411001E0,-3.9616447E-2,-5.653435E-2,1.7277835E-2,1.8165588E0,1.2161896E-2,6.252162E-2,-1.2416606E-2,-6.255471E-2,-7.072389E-3],"split_indices":[492,155,1119,783,178,1932,108,673,444,1114,0,1683,0,283,0,1580,1581,0,0,0,0,1715,0,0,0,1780,0,0,0,1913,0,0,0,0,0],"split_type":[0,0,0,0,0,0,0,0,0,0,0,0,0,0,0,0,0,0,0,0,0,0,0,0,0,0,0,0,0,0,0,0,0,0,0],"sum_hessian":[1.8140331E3,9.5635736E2,8.576758E2,9.095162E2,4.684116E1,8.372356E2,2.0440186E1,8.957118E2,1.38043785E1,4.5767612E1,1.0735477E0,8.352668E2,1.9687834E0,1.7495285E1,2.9449012E0,8.865485E2,9.163282E0,1.2588031E1,1.2163472E0,4.471894E1,1.0486692E0,8.330275E2,2.2392528E0,1.622088E1,1.2744036E0,8.852025E2,1.3459855E0,8.021912E0,1.1413713E0,8.316652E2,1.3623395E0,8.8388806E2,1.3144691E0,8.306595E2,1.0057542E0],"tree_param":{"num_deleted":"0","num_feature":"1971","num_nodes":"35","size_leaf_vector":"1"}},{"base_weights":[-6.5397583E-3,1.0641103E0,-1.1637533E0,1.1962984E0,-9.1036355E-1,-1.2152368E0,7.9038143E-1,1.2187302E0,-1.0460057E0,-1.1500372E0,5.3750332E-2,-1.2242135E0,4.9469132E-2,1.1616375E0,-7.1195614E-1,1.2293947E0,-4.437315E-2,-5.5051345E-2,-1.5876817E-2,-1.1927654E0,1.9759089E-2,-1.2306492E0,4.6949483E-2,6.0527544E-2,9.741529E-3,-4.8636302E-2,5.4839747E-3,1.2342203E0,-4.6540153E-1,-1.2183005E0,-3.4778905E-3,-1.2356858E0,2.4158902E-2,6.181727E-2,-7.7911043E-3,-2.2116697E-3,-3.29661E-2,-6.1526246E-2,-1.6314326E-2,-6.1825957E-2,-1.4940734E-2],"categories":[],"categories_nodes":[],"categories_segments":[],"categories_sizes":[],"default_left":[0,0,0,0,0,0,0,0,0,0,0,0,0,0,0,0,0,0,0,0,0,0,0,0,0,0,0,0,0,0,0,0,0,0,0,0,0,0,0,0,0],"id":19,"left_children":[1,3,5,7,9,11,13,15,17,19,-1,21,-1,23,25,27,-1,-1,-1,29,-1,31,-1,-1,-1,-1,-1,33,35,37,-1,39,-1,-1,-1,-1,-1,-1,-1,-1,-1],"loss_changes":[2.1441526E3,2.3570892E2,8.463147E1,4.3674316E1,2.834637E1,1.7255249E1,1.3072285E1,1.9847534E1,6.603241E-3,3.8596725E0,0E0,1.2402832E1,0E0,6.146221E-1,1.1716266E0,7.372925E0,0E0,0E0,0E0,1.3546906E0,0E0,7.553467E0,0E0,0E0,0E0,0E0,0E0,2.6419678E0,2.229088E-1,1.3292694E-1,0E0,2.5805664E-1,0E0,0E0,0E0,0E0,0E0,0E0,0E0,0E0,0E0],"parents":[2147483647,0,0,1,1,2,2,3,3,4,4,5,5,6,6,7,7,8,8,9,9,11,11,13,13,14,14,15,15,19,19,21,21,27,27,28,28,29,29,31,31],"right_children":[2,4,6,8,10,12,14,16,18,20,-1,22,-1,24,26,28,-1,-1,-1,30,-1,32,-1,-1,-1,-1,-1,34,36,38,-1,40,-1,-1,-1,-1,-1,-1,-1,-1,-1],"split_conditions":[9.0621066E-1,1.1628416E0,1.0380117E0,1.6861578E0,1.240926E0,2.2117195E0,1.834574E0,1.8649654E0,2.5503895E-1,1.7679937E0,5.3750332E-2,2.4557619E-1,4.9469132E-2,6.581939E-1,1.1166663E0,1.3625476E0,-4.437315E-2,-5.5051345E-2,-1.5876817E-2,9.3917686E-1,1.9759089E-2,2.2279782E0,4.6949483E-2,6.0527544E-2,9.741529E-3,-4.8636302E-2,5.4839747E-3,2.1731756E0,1.9551815E0,2.1726665E0,-3.4778905E-3,1.1391644E0,2.4158902E-2,6.181727E-2,-7.7911043E-3,-2.2116697E-3,-3.29661E-2,-6.1526246E-2,-1.6314326E-2,-6.1825957E-2,-1.4940734E-2],"split_indices":[492,1867,1119,673,1119,358,1537,783,201,1009,0,1932,0,1897,228,155,0,0,0,1563,0,1323,0,0,0,0,0,1409,155,653,0,130,0,0,0,0,0,0,0,0,0],"split_type":[0,0,0,0,0,0,0,0,0,0,0,0,0,0,0,0,0,0,0,0,0,0,0,0,0,0,0,0,0,0,0,0,0,0,0,0,0,0,0,0,0],"sum_hessian":[1.7285923E3,8.979201E2,8.306722E2,8.4194714E2,5.597298E1,8.097175E2,2.095465E1,8.340597E2,7.8874207E0,5.03192E1,5.6537833E0,8.0687683E2,2.8406913E0,1.6984291E1,3.9703598E0,8.3027203E2,3.7876542E0,6.8580103E0,1.0294101E0,4.9187176E1,1.1320212E0,8.049132E2,1.9635912E0,1.5926418E1,1.0578737E0,2.874245E0,1.0961149E0,8.2818567E2,2.0863633E0,4.8011024E1,1.1761512E0,8.028329E2,2.0803716E0,8.270319E2,1.1537963E0,1.044959E0,1.0414045E0,4.6987602E1,1.0234219E0,8.0179987E2,1.0329729E0],"tree_param":{"num_deleted":"0","num_feature":"1971","num_nodes":"41","size_leaf_vector":"1"}},{"base_weights":[6.300298E-4,-1.00613E0,1.1827078E0,4.369342E-1,-1.1881994E0,1.2102554E0,-3.592095E-1,9.790391E-1,-1.0709792E0,-1.2038903E0,6.656421E-1,1.2198501E0,-2.2812304E-1,-5.3142846E-2,9.418528E-1,1.1194977E0,-5.060512E-2,-1.1525112E0,2.2703236E-2,-1.2155465E0,8.404804E-1,5.444936E-2,-3.6003415E-2,6.1089993E-2,-2.9016673E-4,-7.8437966E-1,3.8920417E-2,5.1697213E-2,1.3293246E-2,1.1773173E0,-3.9802995E-2,-5.9514474E-2,-7.846734E-3,-1.2197253E0,3.1780727E-2,5.7563013E-3,4.959102E-2,-3.982247E-3,-4.9690142E-2,6.0221493E-2,-9.963869E-3,-6.1081406E-2,5.8179675E-3],"categories":[],"categories_nodes":[],"categories_segments":[],"categories_sizes":[],"default_left":[0,0,0,0,0,0,0,0,0,0,0,0,0,0,0,0,0,0,0,0,0,0,0,0,0,0,0,0,0,0,0,0,0,0,0,0,0,0,0,0,0,0,0],"id":20,"left_children":[1,3,5,7,9,11,13,15,17,19,21,23,25,-1,27,29,-1,31,-1,33,35,-1,-1,-1,-1,37,-1,-1,-1,39,-1,-1,-1,41,-1,-1,-1,-1,-1,-1,-1,-1,-1],"loss_changes":[1.9815839E3,2.3678217E2,3.2965576E1,8.3999466E1,2.403601E1,1.0665649E1,1.4013607E1,2.2154343E1,3.919239E0,1.9904419E1,5.0946827E0,1.7941895E0,3.874593E0,0E0,6.8694115E-2,8.766159E0,0E0,7.989273E-1,0E0,6.873535E0,4.4386983E-1,0E0,0E0,0E0,0E0,5.485127E-1,0E0,0E0,0E0,2.8159866E0,0E0,0E0,0E0,2.1427002E0,0E0,0E0,0E0,0E0,0E0,0E0,0E0,0E0,0E0],"parents":[2147483647,0,0,1,1,2,2,3,3,4,4,5,5,6,6,7,7,8,8,9,9,10,10,11,11,12,12,14,14,15,15,17,17,19,19,20,20,25,25,29,29,33,33],"right_children":[2,4,6,8,10,12,14,16,18,20,22,24,26,-1,28,30,-1,32,-1,34,36,-1,-1,-1,-1,38,-1,-1,-1,40,-1,-1,-1,42,-1,-1,-1,-1,-1,-1,-1,-1,-1],"split_conditions":[5.1270825E-1,2.711769E-1,1.5757478E0,6.163481E-1,1.6024349E0,1.2864349E0,3.6761543E-1,1.9447111E0,8.1533027E-1,1.6037027E0,1.2543725E0,1.9547911E0,8.538463E-1,-5.3142846E-2,1.7900949E0,3.4818417E-1,-5.060512E-2,1.1834186E0,2.2703236E-2,2.2673995E0,9.5653003E-1,5.444936E-2,-3.6003415E-2,6.1089993E-2,-2.9016673E-4,5.2946967E-1,3.8920417E-2,5.1697213E-2,1.3293246E-2,1.4252487E0,-3.9802995E-2,-5.9514474E-2,-7.846734E-3,2.4677439E0,3.1780727E-2,5.7563013E-3,4.959102E-2,-3.982247E-3,-4.9690142E-2,6.0221493E-2,-9.963869E-3,-6.1081406E-2,5.8179675E-3],"split_indices":[1119,283,210,1362,94,1649,1268,108,122,539,177,1872,293,0,335,783,0,1826,0,1752,80,0,0,0,0,104,0,0,0,1872,0,0,0,1323,0,0,0,0,0,0,0,0,0],"split_type":[0,0,0,0,0,0,0,0,0,0,0,0,0,0,0,0,0,0,0,0,0,0,0,0,0,0,0,0,0,0,0,0,0,0,0,0,0,0,0,0,0,0,0],"sum_hessian":[1.6631006E3,8.982348E2,7.6486584E2,1.0047558E2,7.977592E2,7.5165204E2,1.321377E1,7.4163895E1,2.6311678E1,7.914113E2,6.3479195E0,7.4682227E2,4.8297653E0,8.694597E0,4.519173E0,6.96859E1,4.4780025E0,2.5208271E1,1.103408E0,7.873277E2,4.083609E0,5.026436E0,1.3214839E0,7.456393E2,1.1830342E0,3.252816E0,1.5769491E0,3.511291E0,1.007882E0,6.801821E1,1.6676846E0,2.4098257E1,1.1100134E0,7.858947E2,1.4329717E0,1.00888E0,3.0747292E0,1.0613956E0,2.1914203E0,6.682709E1,1.1911211E0,7.848626E2,1.0320988E0],"tree_param":{"num_deleted":"0","num_feature":"1971","num_nodes":"43","size_leaf_vector":"1"}},{"base_weights":[2.0656753E-3,-9.975999E-1,1.1684262E0,7.246171E-1,-1.1752238E0,1.189538E0,-9.373405E-1,1.0586249E0,-8.7523633E-1,-1.187927E0,4.406161E-2,1.1992611E0,-3.0476412E-1,-5.321926E-2,-1.5955381E-3,1.1395224E0,-3.7375882E-2,2.0573387E-2,-1.0572009E0,-1.1941568E0,4.5237746E-2,1.2048041E0,-4.171442E-1,-4.4181388E-2,3.7558552E-2,1.1657671E0,-1.2421542E-2,-5.638955E-2,-5.197096E-3,-1.2002487E0,4.979984E-1,1.2074878E0,-1.2176007E-2,-3.4395274E-2,4.735542E-3,5.9178617E-2,3.635944E-3,-6.0248107E-2,3.1970147E-2,4.0348228E-2,-6.280397E-3,6.045238E-2,7.5811716E-3],"categories":[],"categories_nodes":[],"categories_segments":[],"categories_sizes":[],"default_left":[0,0,0,0,0,0,0,0,0,0,0,0,0,0,0,0,0,0,0,0,0,0,0,0,0,0,0,0,0,0,0,0,0,0,0,0,0,0,0,0,0,0,0],"id":21,"left_children":[1,3,5,7,9,11,13,15,17,19,-1,21,23,-1,-1,25,-1,-1,27,29,-1,31,33,-1,-1,35,-1,-1,-1,37,39,41,-1,-1,-1,-1,-1,-1,-1,-1,-1,-1,-1],"loss_changes":[1.8753036E3,2.6578888E2,3.4114685E1,4.4525875E1,2.1566406E1,1.1049927E1,8.779259E-1,1.07803955E1,3.862606E0,1.1263428E1,0E0,7.050293E0,4.056951E0,0E0,0E0,2.6731796E0,0E0,0E0,7.6467705E-1,8.629883E0,0E0,3.1260986E0,5.142346E-1,0E0,0E0,1.1671982E0,0E0,0E0,0E0,7.505249E0,7.760746E-1,1.0145264E0,0E0,0E0,0E0,0E0,0E0,0E0,0E0,0E0,0E0,0E0,0E0],"parents":[2147483647,0,0,1,1,2,2,3,3,4,4,5,5,6,6,7,7,8,8,9,9,11,11,12,12,15,15,18,18,19,19,21,21,22,22,25,25,29,29,30,30,31,31],"right_children":[2,4,6,8,10,12,14,16,18,20,-1,22,24,-1,-1,26,-1,-1,28,30,-1,32,34,-1,-1,36,-1,-1,-1,38,40,42,-1,-1,-1,-1,-1,-1,-1,-1,-1,-1,-1],"split_conditions":[5.1270825E-1,4.869303E-1,3.135424E0,5.0544417E-1,2.0794415E0,1.2864349E0,1.2377887E0,2.3236566E0,1.3713695E0,1.9181049E0,4.406161E-2,2.0490057E0,1.1862553E0,-5.321926E-2,-1.5955381E-3,1.1015543E0,-3.7375882E-2,2.0573387E-2,2.5562888E-1,1.5928986E0,4.5237746E-2,1.4227744E0,9.4641566E-1,-4.4181388E-2,3.7558552E-2,2.3676927E0,-1.2421542E-2,-5.638955E-2,-5.197096E-3,2.6094956E0,1.4841331E0,1.456795E0,-1.2176007E-2,-3.4395274E-2,4.735542E-3,5.9178617E-2,3.635944E-3,-6.0248107E-2,3.1970147E-2,4.0348228E-2,-6.280397E-3,6.045238E-2,7.5811716E-3],"split_indices":[1119,238,238,1262,1913,1649,98,283,541,539,0,210,1394,0,0,1280,0,0,1127,1009,0,1567,1482,0,0,503,0,0,0,1806,647,587,0,0,0,0,0,0,0,0,0,0,0],"split_type":[0,0,0,0,0,0,0,0,0,0,0,0,0,0,0,0,0,0,0,0,0,0,0,0,0,0,0,0,0,0,0,0,0,0,0,0,0,0,0,0,0,0,0],"sum_hessian":[1.6063632E3,8.650715E2,7.4129175E2,8.059115E1,7.844803E2,7.343643E2,6.927417E0,6.695168E1,1.3639466E1,7.8008386E2,4.3964243E0,7.2981305E2,4.551309E0,5.9210515E0,1.0063652E0,6.443472E1,2.5169616E0,1.5336308E0,1.2105836E1,7.781966E2,1.8872745E0,7.275727E2,2.2403562E0,3.0451424E0,1.5061668E0,6.3396053E1,1.0386704E0,1.1100721E1,1.0051143E0,7.7569476E2,2.5018535E0,7.2639294E2,1.1797293E0,1.2403105E0,1.0000455E0,6.2298424E1,1.0976284E0,7.740565E2,1.6382434E0,1.4763608E0,1.0254925E0,7.2517664E2,1.2162765E0],"tree_param":{"num_deleted":"0","num_feature":"1971","num_nodes":"43","size_leaf_vector":"1"}},{"base_weights":[-2.5271785E-3,-9.9144024E-1,1.1576124E0,7.154666E-1,-1.1664618E0,1.1864362E0,-6.5821093E-1,1.0313765E0,-5.344246E-2,-1.185824E0,1.2416246E-1,1.1926482E0,-3.6449444E-2,-5.539003E-2,4.5153137E-2,1.1306146E0,-7.406068E-1,-1.1893264E0,1.3180203E-2,5.0470736E-2,-4.999879E-2,1.1947743E0,4.0842793E-3,1.174697E0,-2.7636072E-2,-4.2996448E-2,-9.664196E-3,-1.1925341E0,1.3094447E-2,1.1963922E0,8.429658E-3,5.9344005E-2,1.2565695E-2,-5.9759617E-2,1.7961357E-2,5.9868313E-2,1.3049761E-2],"categories":[],"categories_nodes":[],"categories_segments":[],"categories_sizes":[],"default_left":[0,0,0,0,0,0,0,0,0,0,0,0,0,0,0,0,0,0,0,0,0,0,0,0,0,0,0,0,0,0,0,0,0,0,0,0,0],"id":22,"left_children":[1,3,5,7,9,11,13,15,-1,17,19,21,-1,-1,-1,23,25,27,-1,-1,-1,29,-1,31,-1,-1,-1,33,-1,35,-1,-1,-1,-1,-1,-1,-1],"loss_changes":[1.7678292E3,2.4934003E2,3.789209E1,4.505895E1,1.9010376E1,9.178894E0,9.228928E0,1.2577011E1,0E0,4.0892334E0,1.3013081E1,1.5474854E0,0E0,0E0,0E0,5.369911E0,1.0447526E-1,3.7670898E0,0E0,0E0,0E0,9.5214844E-1,0E0,4.0270233E-1,0E0,0E0,0E0,3.4849854E0,0E0,3.1976318E-1,0E0,0E0,0E0,0E0,0E0,0E0,0E0],"parents":[2147483647,0,0,1,1,2,2,3,3,4,4,5,5,6,6,7,7,9,9,10,10,11,11,15,15,16,16,17,17,21,21,23,23,27,27,29,29],"right_children":[2,4,6,8,10,12,14,16,-1,18,20,22,-1,-1,-1,24,26,28,-1,-1,-1,30,-1,32,-1,-1,-1,34,-1,36,-1,-1,-1,-1,-1,-1,-1],"split_conditions":[5.1270825E-1,4.869303E-1,2.1723397E0,9.433957E-1,1.0239894E0,8.0166805E-1,1.2068739E0,2.4544899E-1,-5.344246E-2,1.2505254E0,2.6138394E0,1.8402343E0,-3.6449444E-2,-5.539003E-2,4.5153137E-2,2.9981103E0,8.775858E-1,2.30272E0,1.3180203E-2,5.0470736E-2,-4.999879E-2,2.197758E0,4.0842793E-3,3.07826E-1,-2.7636072E-2,-4.2996448E-2,-9.664196E-3,1.7356744E0,1.3094447E-2,3.8468617E-1,8.429658E-3,5.9344005E-2,1.2565695E-2,-5.9759617E-2,1.7961357E-2,5.9868313E-2,1.3049761E-2],"split_indices":[1119,238,673,673,46,532,1683,1567,0,80,1651,210,0,0,0,1835,508,1268,0,0,0,329,0,1780,0,0,0,76,0,1265,0,0,0,0,0,0,0],"split_type":[0,0,0,0,0,0,0,0,0,0,0,0,0,0,0,0,0,0,0,0,0,0,0,0,0,0,0,0,0,0,0,0,0,0,0,0,0],"sum_hessian":[1.5388906E3,8.308297E2,7.08061E2,7.6980995E1,7.538487E2,6.973383E2,1.0722656E1,6.576024E1,1.1220755E1,7.4278644E2,1.1062242E1,6.9546014E2,1.8781581E0,8.550792E0,2.1718645E0,6.2615475E1,3.1447651E0,7.41175E2,1.6114563E0,6.245781E0,4.8164606E0,6.9405646E2,1.4036659E0,6.1312023E1,1.3034511E0,2.112962E0,1.0318031E0,7.397182E2,1.4567939E0,6.927984E2,1.2581139E0,6.0231964E1,1.0800586E0,7.3868256E2,1.03564E0,6.917979E2,1.0004588E0],"tree_param":{"num_deleted":"0","num_feature":"1971","num_nodes":"37","size_leaf_vector":"1"}},{"base_weights":[1.6873471E-4,1.0144603E0,-1.1108555E0,1.1554843E0,-9.6003026E-1,-1.1689385E0,5.562951E-1,1.1769134E0,-9.478056E-1,-1.1286898E0,6.3606626E-1,-1.1755297E0,4.3202493E-2,-5.98463E-1,5.881549E-2,1.182042E0,-3.725563E-2,-5.2812457E-2,-5.1669325E-3,-5.8264423E-2,1.0477961E-2,4.8495103E-2,-2.1459725E-2,-1.1796522E0,1.9549208E-2,-5.1689763E-2,4.008876E-2,1.1844155E0,6.5594417E-4,-1.1837225E0,6.3462467E-3,5.925724E-2,1.671115E-2,-5.925336E-2,-6.857061E-3],"categories":[],"categories_nodes":[],"categories_segments":[],"categories_sizes":[],"default_left":[0,0,0,0,0,0,0,0,0,0,0,0,0,0,0,0,0,0,0,0,0,0,0,0,0,0,0,0,0,0,0,0,0,0,0],"id":23,"left_children":[1,3,5,7,9,11,13,15,17,19,21,23,-1,25,-1,27,-1,-1,-1,-1,-1,-1,-1,29,-1,-1,-1,31,-1,33,-1,-1,-1,-1,-1],"loss_changes":[1.6753547E3,2.1751477E2,6.9354675E1,3.3829407E1,1.4811523E1,1.0207275E1,1.8291391E1,7.9677734E0,6.119509E-1,2.5809975E0,2.4230957E0,4.8795776E0,0E0,6.463966E0,0E0,1.9748535E0,0E0,0E0,0E0,0E0,0E0,0E0,0E0,3.7803955E0,0E0,0E0,0E0,4.7851562E-2,0E0,7.952881E-1,0E0,0E0,0E0,0E0,0E0],"parents":[2147483647,0,0,1,1,2,2,3,3,4,4,5,5,6,6,7,7,8,8,9,9,10,10,11,11,13,13,15,15,23,23,27,27,29,29],"right_children":[2,4,6,8,10,12,14,16,18,20,22,24,-1,26,-1,28,-1,-1,-1,-1,-1,-1,-1,30,-1,-1,-1,32,-1,34,-1,-1,-1,-1,-1],"split_conditions":[9.0621066E-1,1.8948145E0,4.8178712E-1,1.8591979E0,9.648643E-1,2.4557619E-1,1.6395754E0,1.4798143E0,8.614883E-1,2.5790424E0,3.1360683E0,2.9439654E0,4.3202493E-2,1.4819137E0,5.881549E-2,1.6585519E0,-3.725563E-2,-5.2812457E-2,-5.1669325E-3,-5.8264423E-2,1.0477961E-2,4.8495103E-2,-2.1459725E-2,1.668608E0,1.9549208E-2,-5.1689763E-2,4.008876E-2,2.2876916E0,6.5594417E-4,8.1999415E-1,6.3462467E-3,5.925724E-2,1.671115E-2,-5.925336E-2,-6.857061E-3],"split_indices":[492,238,657,265,657,1932,63,335,971,683,1651,63,0,423,0,209,0,0,0,0,0,0,0,394,0,0,0,1409,0,1317,0,0,0,0,0],"split_type":[0,0,0,0,0,0,0,0,0,0,0,0,0,0,0,0,0,0,0,0,0,0,0,0,0,0,0,0,0,0,0,0,0,0,0],"sum_hessian":[1.48469E3,7.7617786E2,7.0851215E2,7.248236E2,5.135424E1,6.849476E2,2.3564564E1,7.1794934E2,6.8742714E0,4.6711117E1,4.6431212E0,6.831545E2,1.7931069E0,8.244395E0,1.53201685E1,7.1642267E2,1.5266705E0,5.8697147E0,1.0045568E0,4.5593464E1,1.1176527E0,3.6033921E0,1.0397289E0,6.8160767E2,1.5467874E0,6.4887514E0,1.7556438E0,7.149577E2,1.4649788E0,6.7958466E2,2.023014E0,7.139513E2,1.0063602E0,6.7858044E2,1.0042077E0],"tree_param":{"num_deleted":"0","num_feature":"1971","num_nodes":"35","size_leaf_vector":"1"}},{"base_weights":[-3.3951777E-3,-9.671502E-1,1.1357802E0,6.840493E-1,-1.1412696E0,1.1695224E0,-1.4625885E-1,1.0033423E0,-5.3262025E-2,-1.1513917E0,6.113149E-1,1.1722933E0,-1.200099E-2,-9.7151405E-1,6.7835206E-1,1.1325277E0,-4.2863123E-2,-1.1583508E0,3.696156E-2,-1.0659296E-2,4.5849595E-2,5.8719706E-2,1.1652376E-2,-5.317493E-2,-5.3825066E-3,9.5463175E-1,-3.667786E-2,5.8043797E-2,-1.0240713E-2,-1.1635063E0,3.2372463E-2,5.3672772E-2,4.826441E-3,-5.8375556E-2,8.684734E-3],"categories":[],"categories_nodes":[],"categories_segments":[],"categories_sizes":[],"default_left":[0,0,0,0,0,0,0,0,0,0,0,0,0,0,0,0,0,0,0,0,0,0,0,0,0,0,0,0,0,0,0,0,0,0,0],"id":24,"left_children":[1,3,5,7,9,11,13,15,-1,17,19,21,-1,23,25,27,-1,29,-1,-1,-1,-1,-1,-1,-1,31,-1,-1,-1,33,-1,-1,-1,-1,-1],"loss_changes":[1.5639297E3,2.2263672E2,2.8411865E1,4.253146E1,1.3093811E1,2.7662964E0,1.2656673E1,1.6183731E1,0E0,9.997131E0,1.3709143E0,9.7943115E-1,0E0,6.183815E-1,4.369938E0,2.497757E0,0E0,7.201294E0,0E0,0E0,0E0,0E0,0E0,0E0,0E0,7.429147E-1,0E0,0E0,0E0,3.9031982E0,0E0,0E0,0E0,0E0,0E0],"parents":[2147483647,0,0,1,1,2,2,3,3,4,4,5,5,6,6,7,7,9,9,10,10,11,11,13,13,14,14,15,15,17,17,25,25,29,29],"right_children":[2,4,6,8,10,12,14,16,-1,18,20,22,-1,24,26,28,-1,30,-1,-1,-1,-1,-1,-1,-1,32,-1,-1,-1,34,-1,-1,-1,-1,-1],"split_conditions":[5.1270825E-1,4.869303E-1,2.176864E0,2.8164318E0,2.1083744E0,1.2529416E0,3.6761543E-1,1.6738681E0,-5.3262025E-2,1.4496397E0,8.761109E-1,1.7696074E0,-1.200099E-2,1.4783752E0,3.229691E0,1.9059415E0,-4.2863123E-2,1.4599595E0,3.696156E-2,-1.0659296E-2,4.5849595E-2,5.8719706E-2,1.1652376E-2,-5.317493E-2,-5.3825066E-3,4.0008834E-1,-3.667786E-2,5.8043797E-2,-1.0240713E-2,1.1665276E0,3.2372463E-2,5.3672772E-2,4.826441E-3,-5.8375556E-2,8.684734E-3],"split_indices":[1119,238,238,1835,1683,1040,1268,1867,0,122,496,209,0,691,1651,1409,0,1625,0,0,0,0,0,0,0,1470,0,0,0,938,0,0,0,0,0],"split_type":[0,0,0,0,0,0,0,0,0,0,0,0,0,0,0,0,0,0,0,0,0,0,0,0,0,0,0,0,0,0,0,0,0,0,0],"sum_hessian":[1.4224913E3,7.706575E2,6.518338E2,7.323457E1,6.974229E2,6.3520355E2,1.6630257E1,6.2291176E1,1.0943402E1,6.937591E2,3.6638107E0,6.3412524E2,1.0782666E0,8.222842E0,8.407415E0,5.861288E1,3.6782956E0,6.9160077E2,2.1583376E0,1.0727814E0,2.5910292E0,6.324603E2,1.6649299E0,7.222674E0,1.0001683E0,7.302373E0,1.1050425E0,5.752544E1,1.0874397E0,6.899866E2,1.614224E0,6.1937456E0,1.1086272E0,6.880528E2,1.9337516E0],"tree_param":{"num_deleted":"0","num_feature":"1971","num_nodes":"35","size_leaf_vector":"1"}},{"base_weights":[-1.8116073E-3,9.8348606E-1,-1.0971953E0,1.1254579E0,-9.079878E-1,-1.1460031E0,9.2117125E-1,1.152166E0,-5.513192E-1,-1.0623047E0,6.906504E-1,-1.1553751E0,4.4854623E-1,-1.904214E-2,5.6251045E-2,1.1569633E0,-3.7291422E-2,-9.663348E-1,3.647023E-2,-1.1069027E0,2.100241E-2,4.6284594E-2,-6.3264756E-3,-1.1601641E0,3.1731274E-2,4.7446467E-2,-3.0732438E-2,1.1611869E0,-2.6119858E-2,-5.2783903E-2,-6.845793E-3,-1.13576E0,3.8530086E-3,-5.8241762E-2,3.0464297E-2,5.817327E-2,9.9842325E-3,-5.7515908E-2,-1.2552196E-2],"categories":[],"categories_nodes":[],"categories_segments":[],"categories_sizes":[],"default_left":[0,0,0,0,0,0,0,0,0,0,0,0,0,0,0,0,0,0,0,0,0,0,0,0,0,0,0,0,0,0,0,0,0,0,0,0,0,0,0],"id":25,"left_children":[1,3,5,7,9,11,13,15,17,19,21,23,25,-1,-1,27,-1,29,-1,31,-1,-1,-1,33,-1,-1,-1,35,-1,-1,-1,37,-1,-1,-1,-1,-1,-1,-1],"loss_changes":[1.4753329E3,1.9427222E2,6.48244E1,3.0633362E1,1.3265354E1,9.970154E0,4.632139E0,6.8692627E0,6.646473E0,3.5536118E0,1.0924389E0,6.128662E0,2.9326334E0,0E0,0E0,5.2766113E0,0E0,5.129652E-1,0E0,1.6465225E0,0E0,0E0,0E0,5.8981323E0,0E0,0E0,0E0,1.2070923E0,0E0,0E0,0E0,2.8577042E-1,0E0,0E0,0E0,0E0,0E0,0E0,0E0],"parents":[2147483647,0,0,1,1,2,2,3,3,4,4,5,5,6,6,7,7,8,8,9,9,10,10,11,11,12,12,15,15,17,17,19,19,23,23,27,27,31,31],"right_children":[2,4,6,8,10,12,14,16,18,20,22,24,26,-1,-1,28,-1,30,-1,32,-1,-1,-1,34,-1,-1,-1,36,-1,-1,-1,38,-1,-1,-1,-1,-1,-1,-1],"split_conditions":[8.493603E-1,1.963006E0,1.1860974E0,9.3146497E-1,9.648643E-1,1.3931584E0,4.6047685E-1,1.4258889E0,4.8178712E-1,2.1183534E0,2.8385893E-1,1.8969784E0,2.803304E0,-1.904214E-2,5.6251045E-2,4.0380263E0,-3.7291422E-2,8.791484E-1,3.647023E-2,6.7974687E-1,2.100241E-2,4.6284594E-2,-6.3264756E-3,2.637656E-1,3.1731274E-2,4.7446467E-2,-3.0732438E-2,3.513099E0,-2.6119858E-2,-5.2783903E-2,-6.845793E-3,1.2271174E0,3.8530086E-3,-5.8241762E-2,3.0464297E-2,5.817327E-2,9.9842325E-3,-5.7515908E-2,-1.2552196E-2],"split_indices":[673,238,657,1360,657,94,449,1040,657,1323,1790,822,238,0,0,1546,0,1806,0,1097,0,0,0,1257,0,0,0,766,0,0,0,947,0,0,0,0,0,0,0],"split_type":[0,0,0,0,0,0,0,0,0,0,0,0,0,0,0,0,0,0,0,0,0,0,0,0,0,0,0,0,0,0,0,0,0,0,0,0,0,0,0],"sum_hessian":[1.3649618E3,7.186438E2,6.46318E2,6.6884595E2,4.9797836E1,6.3147986E2,1.4838146E1,6.586674E2,1.0178545E1,4.571997E1,4.0778666E0,6.280638E2,3.416079E0,1.8911126E0,1.2947034E1,6.5739624E2,1.2711692E0,7.8728447E0,2.3057E0,4.4630497E1,1.089472E0,3.0638409E0,1.0140259E0,6.267389E2,1.3248883E0,2.3959303E0,1.020149E0,6.560548E2,1.3414533E0,6.861E0,1.0118446E0,4.360833E1,1.022169E0,6.2542957E2,1.3093448E0,6.542943E2,1.760521E0,4.2607006E1,1.0013223E0],"tree_param":{"num_deleted":"0","num_feature":"1971","num_nodes":"39","size_leaf_vector":"1"}},{"base_weights":[3.003054E-3,1.0105702E0,-1.0454111E0,1.1222788E0,-9.251815E-1,-1.1278093E0,7.377783E-1,1.147923E0,-4.2485324E-1,-1.0898349E0,4.1893195E-2,-1.1387658E0,5.088927E-1,-5.3918266E-1,1.0698495E0,1.151395E0,-9.761926E-3,-8.68329E-1,3.849815E-2,-5.635301E-2,2.3250661E-3,-1.1461579E0,3.5622176E-2,4.967054E-2,-3.1500056E-2,-4.9796667E-2,3.522896E-2,5.7117075E-2,-1.248585E-2,1.1534277E0,-1.0315027E-3,-5.1595807E-2,7.9315586E-4,-1.15047E0,1.19652515E-2,5.777058E-2,-6.6883495E-4,-5.769496E-2,2.120138E-2],"categories":[],"categories_nodes":[],"categories_segments":[],"categories_sizes":[],"default_left":[0,0,0,0,0,0,0,0,0,0,0,0,0,0,0,0,0,0,0,0,0,0,0,0,0,0,0,0,0,0,0,0,0,0,0,0,0,0,0],"id":26,"left_children":[1,3,5,7,9,11,13,15,17,19,-1,21,23,25,27,29,-1,31,-1,-1,-1,33,-1,-1,-1,-1,-1,-1,-1,35,-1,-1,-1,37,-1,-1,-1,-1,-1],"loss_changes":[1.3877906E3,1.459043E2,9.543146E1,2.5634888E1,1.1682756E1,1.1622253E1,1.2891431E1,3.133667E0,6.531352E0,1.5060654E0,0E0,9.191284E0,3.2668438E0,4.4842567E0,2.5219975E0,1.5064087E0,0E0,1.2515278E0,0E0,0E0,0E0,3.9194336E0,0E0,0E0,0E0,0E0,0E0,0E0,0E0,1.4534912E0,0E0,0E0,0E0,3.7732544E0,0E0,0E0,0E0,0E0,0E0],"parents":[2147483647,0,0,1,1,2,2,3,3,4,4,5,5,6,6,7,7,8,8,9,9,11,11,12,12,13,13,14,14,15,15,17,17,21,21,29,29,33,33],"right_children":[2,4,6,8,10,12,14,16,18,20,-1,22,24,26,28,30,-1,32,-1,-1,-1,34,-1,-1,-1,-1,-1,-1,-1,36,-1,-1,-1,38,-1,-1,-1,-1,-1],"split_conditions":[1.5313686E0,1.0590374E0,9.82081E-1,8.182917E-1,6.2045354E-1,2.2279782E0,1.1229237E0,3.9709053E0,1.4176582E0,1.489127E0,4.1893195E-2,2.3633502E0,2.77212E0,1.0045315E0,3.7840936E-1,2.400171E0,-9.761926E-3,2.5705603E-1,3.849815E-2,-5.635301E-2,2.3250661E-3,1.0536537E0,3.5622176E-2,4.967054E-2,-3.1500056E-2,-4.9796667E-2,3.522896E-2,5.7117075E-2,-1.248585E-2,2.9699593E0,-1.0315027E-3,-5.1595807E-2,7.9315586E-4,8.5204977E-1,1.19652515E-2,5.777058E-2,-6.6883495E-4,-5.769496E-2,2.120138E-2],"split_indices":[238,673,1119,1360,46,1323,63,1546,1268,42,0,1268,1651,684,1388,223,0,1329,0,0,0,130,0,0,0,0,0,0,0,1651,0,0,0,1907,0,0,0,0,0],"split_type":[0,0,0,0,0,0,0,0,0,0,0,0,0,0,0,0,0,0,0,0,0,0,0,0,0,0,0,0,0,0,0,0,0,0,0,0,0,0,0],"sum_hessian":[1.3117632E3,6.6893066E2,6.4283246E2,6.3283136E2,3.609931E1,6.147915E2,2.8040964E1,6.2276685E2,1.0064504E1,3.3365135E1,2.7341757E0,6.110055E2,3.7860177E0,5.658362E0,2.2382603E1,6.213036E2,1.4632869E0,7.539388E0,2.5251153E0,3.23147E1,1.0504339E0,6.089548E2,2.0507383E0,2.7456713E0,1.0403464E0,4.2842865E0,1.3740752E0,2.1344332E1,1.0382704E0,6.202437E2,1.0598515E0,6.2212944E0,1.3180937E0,6.072344E2,1.7203709E0,6.192007E2,1.0430346E0,6.061813E2,1.0531031E0],"tree_param":{"num_deleted":"0","num_feature":"1971","num_nodes":"39","size_leaf_vector":"1"}},{"base_weights":[-2.1134617E-3,-9.4367486E-1,1.1082296E0,3.3779907E-1,-1.1245626E0,1.135446E0,-6.3251704E-1,9.8447365E-1,-9.9133927E-1,-1.1339829E0,5.540222E-1,1.1425598E0,-5.8631915E-1,-5.1667448E-2,3.921477E-2,1.0909474E0,-5.1330096E-1,-1.0757921E0,2.5746822E-2,-1.1401829E0,4.0260214E-2,-4.4055744E-3,4.1125614E-2,5.7325196E-2,-2.2369731E-2,-7.5200596E-3,-3.6447935E-2,1.1265823E0,-2.0004816E-2,-4.1443873E-2,1.4048859E-2,-5.6149613E-2,3.570841E-3,-1.1440799E0,2.1786867E-2,5.6842197E-2,1.4973315E-2,-5.728146E-2,-5.6159287E-3],"categories":[],"categories_nodes":[],"categories_segments":[],"categories_sizes":[],"default_left":[0,0,0,0,0,0,0,0,0,0,0,0,0,0,0,0,0,0,0,0,0,0,0,0,0,0,0,0,0,0,0,0,0,0,0,0,0,0,0],"id":27,"left_children":[1,3,5,7,9,11,13,15,17,19,21,23,25,-1,-1,27,29,31,-1,33,-1,-1,-1,-1,-1,-1,-1,35,-1,-1,-1,-1,-1,37,-1,-1,-1,-1,-1],"loss_changes":[1.3245618E3,1.5930212E2,2.8262085E1,7.452828E1,1.0132019E1,7.685547E0,6.2578325E0,9.820229E0,4.180208E0,8.107544E0,7.665663E-1,4.092163E0,7.800257E-2,0E0,0E0,3.3482819E0,1.3693614E0,1.5593452E0,0E0,4.1619873E0,0E0,0E0,0E0,0E0,0E0,0E0,0E0,1.1383057E-1,0E0,0E0,0E0,0E0,0E0,8.22876E-1,0E0,0E0,0E0,0E0,0E0],"parents":[2147483647,0,0,1,1,2,2,3,3,4,4,5,5,6,6,7,7,8,8,9,9,10,10,11,11,12,12,15,15,16,16,17,17,19,19,27,27,33,33],"right_children":[2,4,6,8,10,12,14,16,18,20,22,24,26,-1,-1,28,30,32,-1,34,-1,-1,-1,-1,-1,-1,-1,36,-1,-1,-1,-1,-1,38,-1,-1,-1,-1,-1],"split_conditions":[5.1270825E-1,2.0967236E0,2.1723397E0,4.9434683E-1,1.4230613E0,1.3025895E0,1.2494692E0,3.7117603E-1,9.3455213E-1,2.9355016E-1,4.0194634E-1,3.7679734E0,9.9667394E-1,-5.1667448E-2,3.921477E-2,4.3179223E-1,2.5348392E0,1.017122E0,2.5746822E-2,1.7322443E0,4.0260214E-2,-4.4055744E-3,4.1125614E-2,5.7325196E-2,-2.2369731E-2,-7.5200596E-3,-3.6447935E-2,4.1110926E0,-2.0004816E-2,-4.1443873E-2,1.4048859E-2,-5.6149613E-2,3.570841E-3,2.2421527E0,2.1786867E-2,5.6842197E-2,1.4973315E-2,-5.728146E-2,-5.6159287E-3],"split_indices":[1119,1546,673,1867,1009,1040,98,1360,79,421,244,717,1890,0,0,155,1923,794,0,423,0,0,0,0,0,0,0,717,0,0,0,0,0,295,0,0,0,0,0],"split_type":[0,0,0,0,0,0,0,0,0,0,0,0,0,0,0,0,0,0,0,0,0,0,0,0,0,0,0,0,0,0,0,0,0,0,0,0,0,0,0],"sum_hessian":[1.2649698E3,6.845919E2,5.80378E2,8.457372E1,6.000182E2,5.717859E2,8.592091E0,5.7067574E1,2.7506155E1,5.9699225E2,3.0259132E0,5.697682E2,2.0177145E0,6.9083066E0,1.6837838E0,5.35336E1,3.5339744E0,2.6316456E1,1.1896982E0,5.9550037E2,1.4918857E0,1.0902485E0,1.9356649E0,5.6863654E2,1.1316593E0,1.0039564E0,1.0137582E0,5.2522778E1,1.0108212E0,2.497948E0,1.0360264E0,2.5296766E1,1.0196886E0,5.9430475E2,1.1956459E0,5.1509262E1,1.0135165E0,5.933035E2,1.0012245E0],"tree_param":{"num_deleted":"0","num_feature":"1971","num_nodes":"39","size_leaf_vector":"1"}},{"base_weights":[-5.8442974E-3,9.665429E-1,-1.0685107E0,1.1081502E0,-8.750177E-1,-1.1125387E0,8.738886E-1,1.1262935E0,-8.3692604E-1,-1.0562763E0,3.8525116E-1,-1.124949E0,6.3748544E-1,-3.2498866E-2,5.4197904E-2,1.1333854E0,-3.3584855E-2,-8.34745E-3,-4.690871E-2,-1.0982329E0,3.2220066E-3,4.4717047E-2,-4.2310894E-2,-1.1336122E0,6.647895E-1,-1.0075788E-2,4.6601757E-2,1.1361338E0,-7.3149367E-3,-5.595692E-2,-8.195366E-3,-1.1366471E0,1.3189576E-2,1.0329803E-2,3.865334E-2,5.686444E-2,1.22698555E-2,-5.692643E-2,-6.29707E-3],"categories":[],"categories_nodes":[],"categories_segments":[],"categories_sizes":[],"default_left":[0,0,0,0,0,0,0,0,0,0,0,0,0,0,0,0,0,0,0,0,0,0,0,0,0,0,0,0,0,0,0,0,0,0,0,0,0,0,0],"id":28,"left_children":[1,3,5,7,9,11,13,15,17,19,21,23,25,-1,-1,27,-1,-1,-1,29,-1,-1,-1,31,33,-1,-1,35,-1,-1,-1,37,-1,-1,-1,-1,-1,-1,-1],"loss_changes":[1.2438359E3,1.6488593E2,5.015979E1,2.1556519E1,1.0787277E1,1.2941284E1,4.964716E0,8.146118E0,2.4847412E-1,1.9513702E0,4.798337E0,9.424805E0,1.3250126E0,0E0,0E0,2.19635E0,0E0,0E0,0E0,5.7065964E-1,0E0,0E0,0E0,2.6617432E0,5.2154064E-3,0E0,0E0,3.137207E-1,0E0,0E0,0E0,9.137573E-1,0E0,0E0,0E0,0E0,0E0,0E0,0E0],"parents":[2147483647,0,0,1,1,2,2,3,3,4,4,5,5,6,6,7,7,8,8,9,9,10,10,11,11,12,12,15,15,19,19,23,23,24,24,27,27,31,31],"right_children":[2,4,6,8,10,12,14,16,18,20,22,24,26,-1,-1,28,-1,-1,-1,30,-1,-1,-1,32,34,-1,-1,36,-1,-1,-1,38,-1,-1,-1,-1,-1,-1,-1],"split_conditions":[9.0621066E-1,1.8948145E0,1.4077858E0,1.8352534E0,5.6331575E-1,2.3673737E-1,4.0339255E-1,1.9687096E0,7.147244E-1,2.5671675E0,2.3557757E-1,1.2505254E0,5.9655935E-1,-3.2498866E-2,5.4197904E-2,1.1015543E0,-3.3584855E-2,-8.34745E-3,-4.690871E-2,2.7035815E-1,3.2220066E-3,4.4717047E-2,-4.2310894E-2,2.0152757E0,5.2084935E-1,-1.0075788E-2,4.6601757E-2,9.552407E-1,-7.3149367E-3,-5.595692E-2,-8.195366E-3,1.2715275E0,1.3189576E-2,1.0329803E-2,3.865334E-2,5.686444E-2,1.22698555E-2,-5.692643E-2,-6.29707E-3],"split_indices":[492,238,449,265,657,1447,423,979,1695,691,83,80,873,0,0,1280,0,0,0,1918,0,0,0,466,46,0,0,521,0,0,0,1119,0,0,0,0,0,0,0],"split_type":[0,0,0,0,0,0,0,0,0,0,0,0,0,0,0,0,0,0,0,0,0,0,0,0,0,0,0,0,0,0,0,0,0,0,0,0,0,0,0],"sum_hessian":[1.2017246E3,6.2756506E2,5.741596E2,5.8312384E2,4.444121E1,5.6185144E2,1.2308136E1,5.7815186E2,4.9719515E0,3.8994656E1,5.446557E0,5.582498E2,3.601643E0,1.2374477E0,1.1070688E1,5.762486E2,1.9032942E0,1.0004836E0,3.971468E0,3.7606823E1,1.3878336E0,4.0472026E0,1.3993542E0,5.559254E2,2.324361E0,1.0179487E0,2.5836945E0,5.751256E2,1.1229769E0,3.6590313E1,1.0165077E0,5.5490686E2,1.018579E0,1.0001377E0,1.3242234E0,5.741043E2,1.0212874E0,5.537496E2,1.1572646E0],"tree_param":{"num_deleted":"0","num_feature":"1971","num_nodes":"39","size_leaf_vector":"1"}},{"base_weights":[-3.9923196E-3,9.586777E-1,-1.0516244E0,1.0932337E0,-9.392936E-1,-1.1128291E0,5.2379096E-1,1.1165321E0,-7.748848E-1,-1.086364E0,3.4623977E-2,-1.1229359E0,5.1144964E-1,-2.8680652E-1,5.5429645E-2,1.1248572E0,-3.9743956E-2,-4.8837557E-2,1.2452538E-2,-5.6129288E-2,4.670971E-3,-1.1272726E0,2.1646153E-2,-9.672143E-3,4.1031517E-2,5.691954E-1,-7.927937E-1,1.1285346E0,7.920174E-2,-1.4017445E-2,-1.1298004E0,4.110285E-2,1.1738578E-4,-4.6389695E-2,-2.4752633E-3,5.6518167E-2,4.1534966E-3,-2.274869E-2,2.8584963E-2,-5.6541223E-2,-1.5834449E-2],"categories":[],"categories_nodes":[],"categories_segments":[],"categories_sizes":[],"default_left":[0,0,0,0,0,0,0,0,0,0,0,0,0,0,0,0,0,0,0,0,0,0,0,0,0,0,0,0,0,0,0,0,0,0,0,0,0,0,0,0,0],"id":29,"left_children":[1,3,5,7,9,11,13,15,17,19,-1,21,23,25,-1,27,-1,-1,-1,-1,-1,29,-1,-1,-1,31,33,35,37,-1,39,-1,-1,-1,-1,-1,-1,-1,-1,-1,-1],"loss_changes":[1.1660428E3,1.5490259E2,5.3968323E1,2.5373596E1,1.0453949E1,9.328796E0,1.0455365E1,9.750793E0,1.7989855E0,1.706234E0,0E0,4.065979E0,1.0271797E0,4.677196E0,0E0,2.0430908E0,0E0,0E0,0E0,0E0,0E0,8.1604004E-1,0E0,0E0,0E0,6.010492E-1,6.113262E-1,9.626465E-1,1.0543425E0,0E0,8.081055E-2,0E0,0E0,0E0,0E0,0E0,0E0,0E0,0E0,0E0,0E0],"parents":[2147483647,0,0,1,1,2,2,3,3,4,4,5,5,6,6,7,7,8,8,9,9,11,11,12,12,13,13,15,15,21,21,25,25,26,26,27,27,28,28,30,30],"right_children":[2,4,6,8,10,12,14,16,18,20,-1,22,24,26,-1,28,-1,-1,-1,-1,-1,30,-1,-1,-1,32,34,36,38,-1,40,-1,-1,-1,-1,-1,-1,-1,-1,-1,-1],"split_conditions":[9.0621066E-1,2.6410282E0,3.6229596E-1,1.6861578E0,4.6856067E-1,1.4230613E0,4.0194634E-1,1.6266168E0,3.6224288E-1,1.2295946E0,3.4623977E-2,1.264037E0,1.2590483E0,1.7210983E0,5.5429645E-2,4.0230217E0,-3.9743956E-2,-4.8837557E-2,1.2452538E-2,-5.6129288E-2,4.670971E-3,1.4518903E0,2.1646153E-2,-9.672143E-3,4.1031517E-2,1.3174089E0,2.6641622E-1,1.3025895E0,1.9097697E0,-1.4017445E-2,1.1769357E0,4.110285E-2,1.1738578E-4,-4.6389695E-2,-2.4752633E-3,5.6518167E-2,4.1534966E-3,-2.274869E-2,2.8584963E-2,-5.6541223E-2,-1.5834449E-2],"split_indices":[492,1651,46,673,293,1009,244,1580,502,69,0,938,1394,673,0,717,0,0,0,0,0,541,0,0,0,329,178,1040,80,0,1391,0,0,0,0,0,0,0,0,0,0],"split_type":[0,0,0,0,0,0,0,0,0,0,0,0,0,0,0,0,0,0,0,0,0,0,0,0,0,0,0,0,0,0,0,0,0,0,0,0,0,0,0,0,0],"sum_hessian":[1.1541879E3,6.015281E2,5.526598E2,5.6210205E2,3.9426037E1,5.322746E2,2.0385187E1,5.555755E2,6.5265555E0,3.6473E1,2.9530387E0,5.292898E2,2.9847574E0,8.756842E0,1.1628345E1,5.535759E2,1.9995844E0,5.4902487E0,1.0363071E0,3.5433598E1,1.0394017E0,5.280933E2,1.196507E0,1.0241541E0,1.9606034E0,3.206811E0,5.550031E0,5.5155695E2,2.0189824E0,1.9045006E0,5.261888E2,1.9062417E0,1.3005693E0,4.4868717E0,1.0631595E0,5.505127E2,1.0442306E0,1.0050595E0,1.0139228E0,5.251367E2,1.0521082E0],"tree_param":{"num_deleted":"0","num_feature":"1971","num_nodes":"41","size_leaf_vector":"1"}},{"base_weights":[-5.7483027E-3,-9.207907E-1,1.0771017E0,6.4535195E-1,-1.0846639E0,1.1098446E0,-4.5889658E-1,9.6772295E-1,-8.159681E-1,-1.1061026E0,1.4316736E-1,1.1181705E0,-3.1285834E-2,-9.225155E-1,4.3227386E-2,5.509975E-2,-4.3755855E-2,1.8682636E-2,-5.132355E-2,-1.113168E0,4.7053272E-1,4.6486914E-2,-4.0164724E-2,5.6138527E-2,-1.7531505E-2,-5.0740015E-2,-4.9564387E-3,-1.1174718E0,2.757573E-2,-2.5556188E-3,3.7528258E-2,-5.6063052E-2,2.0896742E-2],"categories":[],"categories_nodes":[],"categories_segments":[],"categories_sizes":[],"default_left":[0,0,0,0,0,0,0,0,0,0,0,0,0,0,0,0,0,0,0,0,0,0,0,0,0,0,0,0,0,0,0,0,0],"id":30,"left_children":[1,3,5,7,9,11,13,15,17,19,21,23,-1,25,-1,-1,-1,-1,-1,27,29,-1,-1,-1,-1,-1,-1,31,-1,-1,-1,-1,-1],"loss_changes":[1.1031199E3,1.5556238E2,2.6153687E1,2.8010626E1,1.4547119E1,7.918152E0,7.761696E0,1.2791466E1,3.1346097E0,6.5097046E0,8.389432E0,3.755249E0,0E0,5.748701E-1,0E0,0E0,0E0,0E0,0E0,4.451111E0,4.9123096E-1,0E0,0E0,0E0,0E0,0E0,0E0,3.576477E0,0E0,0E0,0E0,0E0,0E0],"parents":[2147483647,0,0,1,1,2,2,3,3,4,4,5,5,6,6,7,7,8,8,9,9,10,10,11,11,13,13,19,19,20,20,27,27],"right_children":[2,4,6,8,10,12,14,16,18,20,22,24,-1,26,-1,-1,-1,-1,-1,28,30,-1,-1,-1,-1,-1,-1,32,-1,-1,-1,-1,-1],"split_conditions":[5.1270825E-1,4.869303E-1,2.0501354E0,2.263916E0,1.0239894E0,1.3025895E0,3.5701385E-1,2.9166186E0,2.711769E-1,2.2279782E0,2.2149117E0,3.7679734E0,-3.1285834E-2,6.6844624E-1,4.3227386E-2,5.509975E-2,-4.3755855E-2,1.8682636E-2,-5.132355E-2,3.1601474E-1,1.1456683E0,4.6486914E-2,-4.0164724E-2,5.6138527E-2,-1.7531505E-2,-5.0740015E-2,-4.9564387E-3,2.0387392E0,2.757573E-2,-2.5556188E-3,3.7528258E-2,-5.6063052E-2,2.0896742E-2],"split_indices":[1119,238,673,1546,46,1040,1925,1651,283,1323,1651,717,0,551,0,0,0,0,0,1373,229,0,0,0,0,0,0,168,0,0,0,0,0],"split_type":[0,0,0,0,0,0,0,0,0,0,0,0,0,0,0,0,0,0,0,0,0,0,0,0,0,0,0,0,0,0,0,0,0],"sum_hessian":[1.1113015E3,6.024023E2,5.0889923E2,5.678334E1,5.4561896E2,4.985491E2,1.03501215E1,4.679747E1,9.985869E0,5.36353E2,9.2659445E0,4.9652292E2,2.0261939E0,7.8893337E0,2.4607882E0,4.3994015E1,2.803455E0,1.3848094E0,8.60106E0,5.342528E2,2.1001878E0,5.0700636E0,4.195881E0,4.952076E2,1.3153214E0,6.885175E0,1.0041583E0,5.33203E2,1.0498034E0,1.0191638E0,1.081024E0,5.321594E2,1.043572E0],"tree_param":{"num_deleted":"0","num_feature":"1971","num_nodes":"33","size_leaf_vector":"1"}},{"base_weights":[8.717024E-3,-9.1152304E-1,1.0763291E0,3.356257E-1,-1.0931214E0,1.0998169E0,-5.158055E-1,1.0165799E0,-1.0604568E0,-1.1011126E0,4.093664E-2,1.1100857E0,-5.4552674E-1,-4.7854878E-2,2.8859973E-2,1.0817466E0,-3.4299765E-2,-5.439974E-2,-1.1010408E-2,-1.1077862E0,3.7014753E-2,1.1140506E0,-7.877695E-3,6.2767686E-3,-4.2112317E-2,5.5101763E-2,8.984445E-3,-1.1135911E0,2.6958114E-2,5.58089E-2,3.0256687E-3,-5.5779405E-2,-3.8085978E-3],"categories":[],"categories_nodes":[],"categories_segments":[],"categories_sizes":[],"default_left":[0,0,0,0,0,0,0,0,0,0,0,0,0,0,0,0,0,0,0,0,0,0,0,0,0,0,0,0,0,0,0,0,0],"id":31,"left_children":[1,3,5,7,9,11,13,15,17,19,-1,21,23,-1,-1,25,-1,-1,-1,27,-1,29,-1,-1,-1,-1,-1,31,-1,-1,-1,-1,-1],"loss_changes":[1.0479867E3,1.3011603E2,1.9033508E1,7.102989E1,8.545288E0,8.832825E0,4.343405E0,6.286152E0,3.2993507E-1,6.947937E0,0E0,2.609436E0,8.406191E-1,0E0,0E0,6.8987274E-1,0E0,0E0,0E0,5.35437E0,0E0,1.0146484E0,0E0,0E0,0E0,0E0,0E0,9.423218E-1,0E0,0E0,0E0,0E0,0E0],"parents":[2147483647,0,0,1,1,2,2,3,3,4,4,5,5,6,6,7,7,8,8,9,9,11,11,12,12,15,15,19,19,21,21,27,27],"right_children":[2,4,6,8,10,12,14,16,18,20,-1,22,24,-1,-1,26,-1,-1,-1,28,-1,30,-1,-1,-1,-1,-1,32,-1,-1,-1,-1,-1],"split_conditions":[5.1270825E-1,2.0967236E0,3.5671637E0,2.0974543E0,2.9355016E-1,1.3025895E0,3.6761543E-1,1.3562391E0,1.0802872E0,2.3633502E0,4.093664E-2,1.7067965E0,2.4889988E-1,-4.7854878E-2,2.8859973E-2,2.089348E0,-3.4299765E-2,-5.439974E-2,-1.1010408E-2,1.7356744E0,3.7014753E-2,2.0490057E0,-7.877695E-3,6.2767686E-3,-4.2112317E-2,5.5101763E-2,8.984445E-3,1.4648005E0,2.6958114E-2,5.58089E-2,3.0256687E-3,-5.5779405E-2,-3.8085978E-3],"split_indices":[1119,1546,717,1651,421,1040,1268,481,250,1268,0,1280,666,0,0,379,0,0,0,76,0,210,0,0,0,0,0,405,0,0,0,0,0],"split_type":[0,0,0,0,0,0,0,0,0,0,0,0,0,0,0,0,0,0,0,0,0,0,0,0,0,0,0,0,0,0,0,0,0],"sum_hessian":[1.0646985E3,5.718942E2,4.9280432E2,7.258178E1,4.993124E2,4.859447E2,6.859627E0,4.896864E1,2.3613144E1,4.9765637E2,1.6560564E0,4.8325397E2,2.6907268E0,4.975251E0,1.8843753E0,4.751464E1,1.4539994E0,2.257832E1,1.034824E0,4.9625626E2,1.4001212E0,4.8186792E2,1.38604E0,1.0018535E0,1.6888733E0,4.6252655E1,1.2619866E0,4.9483597E2,1.4202746E0,4.8083752E2,1.0303994E0,4.938101E2,1.0258827E0],"tree_param":{"num_deleted":"0","num_feature":"1971","num_nodes":"33","size_leaf_vector":"1"}},{"base_weights":[7.969668E-3,9.289951E-1,-1.0368268E0,1.0487546E0,-7.743523E-1,-1.085501E0,8.434309E-1,1.0888034E0,-3.1985933E-1,-1.0051897E0,7.8895485E-1,-1.0943401E0,3.6707826E-2,-1.4738104E-2,5.1308572E-2,1.0974435E0,-4.1158006E-1,-8.957655E-1,4.2130616E-2,-1.0483905E0,6.5609547E-3,4.3847896E-2,1.0606583E-2,-1.104273E0,3.9772418E-1,1.1029904E0,-1.9341081E-2,7.99338E-3,-3.506414E-2,-5.047372E-2,2.5218923E-3,-5.3919185E-2,-5.405238E-3,-5.5507775E-2,3.355735E-2,-1.7789284E-2,4.1143384E-2,5.529653E-2,-1.6378182E-3],"categories":[],"categories_nodes":[],"categories_segments":[],"categories_sizes":[],"default_left":[0,0,0,0,0,0,0,0,0,0,0,0,0,0,0,0,0,0,0,0,0,0,0,0,0,0,0,0,0,0,0,0,0,0,0,0,0,0,0],"id":32,"left_children":[1,3,5,7,9,11,13,15,17,19,21,23,-1,-1,-1,25,27,29,-1,31,-1,-1,-1,33,35,37,-1,-1,-1,-1,-1,-1,-1,-1,-1,-1,-1,-1,-1],"loss_changes":[9.7945056E2,1.1116315E2,4.4559692E1,2.807434E1,1.3824278E1,8.287048E0,2.9224186E0,6.8257446E0,1.0900228E1,1.7038765E0,7.825327E-2,7.307556E0,0E0,0E0,0E0,4.4539185E0,6.985717E-1,1.193387E0,0E0,7.533798E-1,0E0,0E0,0E0,5.555969E0,1.5100818E0,1.6643677E0,0E0,0E0,0E0,0E0,0E0,0E0,0E0,0E0,0E0,0E0,0E0,0E0,0E0],"parents":[2147483647,0,0,1,1,2,2,3,3,4,4,5,5,6,6,7,7,8,8,9,9,10,10,11,11,15,15,16,16,17,17,19,19,23,23,24,24,25,25],"right_children":[2,4,6,8,10,12,14,16,18,20,22,24,-1,-1,-1,26,28,30,-1,32,-1,-1,-1,34,36,38,-1,-1,-1,-1,-1,-1,-1,-1,-1,-1,-1,-1,-1],"split_conditions":[8.493603E-1,1.1417344E0,1.1860974E0,5.428942E-1,8.580305E-1,2.9355016E-1,4.6047685E-1,3.037794E0,7.755276E-1,7.6140934E-1,1.0530457E0,6.1552584E-1,3.6707826E-2,-1.4738104E-2,5.1308572E-2,1.327708E0,3.439271E0,1.599591E0,4.2130616E-2,8.556898E-1,6.5609547E-3,4.3847896E-2,1.0606583E-2,2.3633502E0,9.336143E-1,1.4718742E0,-1.9341081E-2,7.99338E-3,-3.506414E-2,-5.047372E-2,2.5218923E-3,-5.3919185E-2,-5.405238E-3,-5.5507775E-2,3.355735E-2,-1.7789284E-2,4.1143384E-2,5.529653E-2,-1.6378182E-3],"split_indices":[673,1867,657,1360,1119,421,449,283,449,657,472,914,0,0,0,1780,541,948,0,664,0,0,0,1268,860,233,0,0,0,0,0,0,0,0,0,0,0,0,0],"split_type":[0,0,0,0,0,0,0,0,0,0,0,0,0,0,0,0,0,0,0,0,0,0,0,0,0,0,0,0,0,0,0,0,0,0,0,0,0,0,0],"sum_hessian":[1.0158384E3,5.3995746E2,4.7588092E2,5.048468E2,3.5110634E1,4.6428467E2,1.1596234E1,4.9069247E2,1.4154338E1,3.0904324E1,4.20631E0,4.6243698E2,1.8477051E0,1.5194417E0,1.0076793E1,4.8814996E2,2.5424912E0,9.618578E0,4.53576E0,2.984713E1,1.0571945E0,3.1980722E0,1.0082374E0,4.5963702E2,2.7999623E0,4.8658838E2,1.5615916E0,1.006098E0,1.5363933E0,8.526988E0,1.09159E0,2.8782171E1,1.0649586E0,4.5849258E2,1.1444323E0,1.068799E0,1.7311631E0,4.853582E2,1.2302077E0],"tree_param":{"num_deleted":"0","num_feature":"1971","num_nodes":"39","size_leaf_vector":"1"}},{"base_weights":[-1.7357792E-4,9.389175E-1,-1.0326686E0,1.0648313E0,-9.4040537E-1,-1.0821475E0,6.585222E-1,1.0918717E0,-7.794802E-1,-1.0463948E0,3.0210076E-2,-1.0913196E0,3.0595412E-2,-3.1812832E-1,5.218601E-2,1.0994163E0,-2.9991928E-2,-4.8051897E-2,8.5074E-3,-5.442453E-2,-5.70942E-4,-1.098404E0,2.7498541E-2,-3.937791E-2,2.8050875E-2,1.1023575E0,-5.7588187E-3,-1.1021123E0,9.769122E-3,5.523069E-2,7.515382E-3,-5.5210363E-2,-4.32744E-3],"categories":[],"categories_nodes":[],"categories_segments":[],"categories_sizes":[],"default_left":[0,0,0,0,0,0,0,0,0,0,0,0,0,0,0,0,0,0,0,0,0,0,0,0,0,0,0,0,0,0,0,0,0],"id":33,"left_children":[1,3,5,7,9,11,13,15,17,19,-1,21,-1,23,-1,25,-1,-1,-1,-1,-1,27,-1,-1,-1,29,-1,31,-1,-1,-1,-1,-1],"loss_changes":[9.422405E2,1.2142529E2,3.9444733E1,2.4660583E1,5.9506702E0,7.661194E0,5.5156856E0,6.670105E0,1.453517E0,1.3280144E0,0E0,5.8135986E0,0E0,2.3665438E0,0E0,1.8031006E0,0E0,0E0,0E0,0E0,0E0,2.3572388E0,0E0,0E0,0E0,8.395996E-1,0E0,8.518677E-1,0E0,0E0,0E0,0E0,0E0],"parents":[2147483647,0,0,1,1,2,2,3,3,4,4,5,5,6,6,7,7,8,8,9,9,11,11,13,13,15,15,21,21,25,25,27,27],"right_children":[2,4,6,8,10,12,14,16,18,20,-1,22,-1,24,-1,26,-1,-1,-1,-1,-1,28,-1,-1,-1,30,-1,32,-1,-1,-1,-1,-1],"split_conditions":[9.0621066E-1,2.77212E0,2.3075035E-1,1.558737E0,2.4677439E0,1.678017E0,5.1270825E-1,1.8326969E0,9.7704303E-1,3.2732457E-1,3.0210076E-2,1.8256428E0,3.0595412E-2,7.8147566E-1,5.218601E-2,2.741729E0,-2.9991928E-2,-4.8051897E-2,8.5074E-3,-5.442453E-2,-5.70942E-4,1.4094902E0,2.7498541E-2,-3.937791E-2,2.8050875E-2,1.5757478E0,-5.7588187E-3,1.3397717E0,9.769122E-3,5.523069E-2,7.515382E-3,-5.5210363E-2,-4.32744E-3],"split_indices":[492,1651,183,979,1323,423,1119,1867,1172,1965,0,1816,0,1854,0,503,0,0,0,0,0,293,0,0,0,1350,0,1918,0,0,0,0,0],"split_type":[0,0,0,0,0,0,0,0,0,0,0,0,0,0,0,0,0,0,0,0,0,0,0,0,0,0,0,0,0,0,0,0,0],"sum_hessian":[9.697757E2,5.0790686E2,4.618688E2,4.7642032E2,3.1486534E1,4.4908997E2,1.2778832E1,4.699383E2,6.482054E0,2.9766533E1,1.7200015E0,4.4702548E2,2.0645072E0,3.663733E0,9.115099E0,4.6820035E2,1.7379175E0,5.4315844E0,1.0504699E0,2.8553465E1,1.2130681E0,4.4543356E2,1.5919071E0,2.4563274E0,1.2074056E0,4.6716153E2,1.0388427E0,4.4430823E2,1.1253476E0,4.6589716E2,1.264377E0,4.4330646E2,1.001752E0],"tree_param":{"num_deleted":"0","num_feature":"1971","num_nodes":"33","size_leaf_vector":"1"}},{"base_weights":[-3.4452896E-4,9.3511176E-1,-1.0193391E0,1.0619128E0,-9.560297E-1,-1.0798253E0,5.224552E-1,1.0889916E0,-3.5834607E-1,-1.0475361E0,2.7011633E-2,-1.0899575E0,4.6546385E-1,-2.8040835E-1,1.0107188E0,1.0945175E0,-1.5698059E-2,-7.956036E-1,3.4868762E-2,-5.4087907E-2,-2.2440106E-3,-5.4825068E-2,2.5554715E-2,3.594959E-2,-3.7029963E-3,2.7935145E-2,-7.133103E-1,1.4757994E-2,5.266108E-2,1.0973269E0,2.1222343E-3,-4.6670247E-2,-6.4767484E-4,-4.248469E-2,-3.2006723E-3,5.4923262E-2,1.5369545E-2],"categories":[],"categories_nodes":[],"categories_segments":[],"categories_sizes":[],"default_left":[0,0,0,0,0,0,0,0,0,0,0,0,0,0,0,0,0,0,0,0,0,0,0,0,0,0,0,0,0,0,0,0,0,0,0,0,0],"id":34,"left_children":[1,3,5,7,9,11,13,15,17,19,-1,21,23,25,27,29,-1,31,-1,-1,-1,-1,-1,-1,-1,-1,33,-1,-1,35,-1,-1,-1,-1,-1,-1,-1],"loss_changes":[8.8380945E2,1.1693494E2,4.194934E1,1.7831482E1,4.796915E0,7.1983643E0,7.114737E0,3.7955322E0,4.818928E0,9.623451E-1,0E0,5.01178E0,5.298775E-1,3.0767744E0,2.5302887E-2,1.2650146E0,0E0,7.427473E-1,0E0,0E0,0E0,0E0,0E0,0E0,0E0,0E0,4.1520262E-1,0E0,0E0,6.02417E-2,0E0,0E0,0E0,0E0,0E0,0E0,0E0],"parents":[2147483647,0,0,1,1,2,2,3,3,4,4,5,5,6,6,7,7,8,8,9,9,11,11,12,12,13,13,14,14,15,15,17,17,26,26,29,29],"right_children":[2,4,6,8,10,12,14,16,18,20,-1,22,24,26,28,30,-1,32,-1,-1,-1,-1,-1,-1,-1,-1,34,-1,-1,36,-1,-1,-1,-1,-1,-1,-1],"split_conditions":[9.0621066E-1,2.77212E0,3.6229596E-1,1.9433919E0,2.4677439E0,1.3931584E0,3.6761543E-1,3.9709053E0,5.4498655E-1,3.2732457E-1,2.7011633E-2,1.8154813E0,1.5666871E0,3.1271684E0,3.2972038E-1,1.6585519E0,-1.5698059E-2,1.8598041E-1,3.4868762E-2,-5.4087907E-2,-2.2440106E-3,-5.4825068E-2,2.5554715E-2,3.594959E-2,-3.7029963E-3,2.7935145E-2,2.4705185E-1,1.4757994E-2,5.266108E-2,1.539516E0,2.1222343E-3,-4.6670247E-2,-6.4767484E-4,-4.248469E-2,-3.2006723E-3,5.4923262E-2,1.5369545E-2],"split_indices":[492,1651,46,238,1323,94,1268,1546,46,1965,0,1445,177,541,78,209,0,1387,0,0,0,0,0,0,0,0,1737,0,0,1615,0,0,0,0,0,0,0],"split_type":[0,0,0,0,0,0,0,0,0,0,0,0,0,0,0,0,0,0,0,0,0,0,0,0,0,0,0,0,0,0,0,0,0,0,0,0,0],"sum_hessian":[9.251784E2,4.824044E2,4.4277405E2,4.5250256E2,2.9901812E1,4.263476E2,1.6426443E1,4.4426538E2,8.237195E0,2.8461123E1,1.4406893E0,4.2386307E2,2.484529E0,6.372951E0,1.0053493E1,4.427414E2,1.5239799E0,5.9989467E0,2.2382486E0,2.7445478E1,1.0156432E0,4.2245154E2,1.4115349E0,1.463958E0,1.020571E0,2.069996E0,4.302955E0,1.0091041E0,9.044389E0,4.4151935E2,1.2220433E0,4.9370575E0,1.0618894E0,3.3009586E0,1.0019963E0,4.4049402E2,1.0253282E0],"tree_param":{"num_deleted":"0","num_feature":"1971","num_nodes":"37","size_leaf_vector":"1"}},{"base_weights":[4.2163266E-4,9.286988E-1,-1.0127019E0,1.0563337E0,-9.2747736E-1,-1.0743997E0,5.338289E-1,1.08061E0,-7.018549E-1,-1.0167679E0,3.1891387E-2,-1.085307E0,4.7777078E-1,8.0181277E-1,-3.8966846E-2,1.088079E0,-2.8484792E-2,-4.446699E-2,-4.2084837E-3,-5.368107E-2,1.0457995E-2,-1.0898707E0,1.966211E-2,-4.075595E-3,3.65355E-2,9.588846E-1,-2.0257365E-2,1.0921397E0,3.0152444E-3,-1.0916882E0,-8.827709E-3,5.1252395E-2,4.236439E-3,5.466509E-2,1.482402E-2,-5.4642916E-2,-1.578199E-2],"categories":[],"categories_nodes":[],"categories_segments":[],"categories_sizes":[],"default_left":[0,0,0,0,0,0,0,0,0,0,0,0,0,0,0,0,0,0,0,0,0,0,0,0,0,0,0,0,0,0,0,0,0,0,0,0,0],"id":35,"left_children":[1,3,5,7,9,11,13,15,17,19,-1,21,23,25,-1,27,-1,-1,-1,-1,-1,29,-1,-1,-1,31,-1,33,-1,35,-1,-1,-1,-1,-1,-1,-1],"loss_changes":[8.463725E2,1.1224429E2,4.1632935E1,1.953421E1,4.946148E0,7.5298767E0,6.6694207E0,5.9730835E0,6.891701E-1,2.2788944E0,0E0,3.205536E0,5.666033E-1,3.1863422E0,0E0,1.7399902E0,0E0,0E0,0E0,0E0,0E0,4.8876953E-1,0E0,0E0,0E0,6.856079E-1,0E0,7.4279785E-2,0E0,2.6916504E-2,0E0,0E0,0E0,0E0,0E0,0E0,0E0],"parents":[2147483647,0,0,1,1,2,2,3,3,4,4,5,5,6,6,7,7,8,8,9,9,11,11,12,12,13,13,15,15,21,21,25,25,27,27,29,29],"right_children":[2,4,6,8,10,12,14,16,18,20,-1,22,24,26,-1,28,-1,-1,-1,-1,-1,30,-1,-1,-1,32,-1,34,-1,36,-1,-1,-1,-1,-1,-1,-1],"split_conditions":[9.0621066E-1,2.77212E0,3.6229596E-1,2.3313622E0,2.4677439E0,1.3931584E0,3.816732E0,1.4798143E0,8.8162786E-1,1.2255856E0,3.1891387E-2,1.9006474E0,5.562404E-1,1.834574E0,-3.8966846E-2,3.2799878E0,-2.8484792E-2,-4.446699E-2,-4.2084837E-3,-5.368107E-2,1.0457995E-2,5.0297743E-1,1.966211E-2,-4.075595E-3,3.65355E-2,3.0651882E0,-2.0257365E-2,1.4569213E0,3.0152444E-3,1.6018018E0,-8.827709E-3,5.1252395E-2,4.236439E-3,5.466509E-2,1.482402E-2,-5.4642916E-2,-1.578199E-2],"split_indices":[492,1651,46,238,1323,94,717,335,63,657,0,189,1238,1537,0,766,0,0,0,0,0,213,0,0,0,1651,0,738,0,244,0,0,0,0,0,0,0],"split_type":[0,0,0,0,0,0,0,0,0,0,0,0,0,0,0,0,0,0,0,0,0,0,0,0,0,0,0,0,0,0,0,0,0,0,0,0,0],"sum_hessian":[8.979564E2,4.686437E2,4.2931274E2,4.388952E2,2.9748514E1,4.1313623E2,1.617651E1,4.3329776E2,5.5974226E0,2.8474653E1,1.2738597E0,4.10552E2,2.5842323E0,1.3758211E1,2.4182978E0,4.3168472E2,1.6130477E0,3.9566674E0,1.6407552E0,2.7331373E1,1.1432811E0,4.0955078E2,1.0012302E0,1.0158322E0,1.5684001E0,1.2355787E1,1.4024246E0,4.299235E2,1.7612252E0,4.0854248E2,1.008304E0,1.13259325E1,1.0298549E0,4.2892297E2,1.0005381E0,4.0751978E2,1.0226887E0],"tree_param":{"num_deleted":"0","num_feature":"1971","num_nodes":"37","size_leaf_vector":"1"}},{"base_weights":[-9.234475E-3,9.282277E-1,-9.980135E-1,1.0242794E0,-8.9312315E-1,-1.0598574E0,8.740785E-1,1.0748887E0,-9.065321E-1,-1.0140915E0,3.1362113E-2,-1.0767769E0,6.149678E-1,-1.8635478E-2,5.167631E-2,1.0819052E0,-2.6313776E-2,-4.9741726E-2,-4.5436245E-4,-5.2859962E-2,-3.6284842E-3,-1.0837044E0,2.9867897E-2,-9.041623E-3,4.4244796E-2,1.0857719E0,-1.1109749E-2,-5.440565E-2,1.4737027E-2,5.4366853E-2,1.2735702E-2],"categories":[],"categories_nodes":[],"categories_segments":[],"categories_sizes":[],"default_left":[0,0,0,0,0,0,0,0,0,0,0,0,0,0,0,0,0,0,0,0,0,0,0,0,0,0,0,0,0,0,0],"id":36,"left_children":[1,3,5,7,9,11,13,15,17,19,-1,21,23,-1,-1,25,-1,-1,-1,-1,-1,27,-1,-1,-1,29,-1,-1,-1,-1,-1],"loss_changes":[7.9260803E2,7.770355E1,4.9106476E1,4.1762665E1,4.778324E0,1.20903015E1,3.1396608E0,5.1441956E0,8.7883663E-1,7.855339E-1,0E0,5.282013E0,1.1631455E0,0E0,0E0,2.287323E0,0E0,0E0,0E0,0E0,0E0,2.7413635E0,0E0,0E0,0E0,2.4945068E-1,0E0,0E0,0E0,0E0,0E0],"parents":[2147483647,0,0,1,